float weightIH[883][25] = {
	{-0.00681436, 0.00940256, 0.0217455, -0.033035, 0.0155927, -0.0263237, 0.0154341, 0.00118163, 0.00216905, 0.00710869, -0.214131, -0.00371205, 0.0210619, -0.0148156, 0.0390072, 0.0282843, 0.0295652, -0.0240218, -0.0147904, -0.00939634, 0.0513424, -0.0300699, -0.118249, 0.0026938, 0.0882418},
	{0.0222875, -0.0187092, 0.0166149, -0.0208783, 0.0308576, -0.0141371, -0.0152665, 0.0150048, -0.0329855, 0.0135708, -0.0200486, 0.0120788, 0.0336821, -0.00942809, 0.0411596, -0.030978, -0.0255173, -0.04847, -0.0107751, 0.0161715, 0.030812, -0.00540051, -0.0224749, 0.00269374, 0.00182442},
	{-0.00137996, -0.00333518, 0.138812, 0.00537735, -0.00811874, -0.0523043, -0.0175204, -0.00564702, -0.0986484, 0.0193311, -0.0435736, -0.00973789, 0.0276305, -0.00471405, 0.074544, -0.0289577, -0.00606619, -0.108239, 0.0101015, -0.00077328, 0.0746706, -0.0296297, 0.0195855, -0.0134687, -0.000855059},
	{0.000682751, -0.0289101, 0.00395169, 0.0296311, -0.000680016, -0.0757558, -0.017516, 0.023513, -0.029146, 0.0046784, 0.0371272, 0.0113746, 0.0181867, -0.0121218, 0.0203497, -0.00336718, -0.00674544, -0.0556345, -0.0175093, -0.00810162, 0.0556728, -0.0208808, 0.0330262, -0.0134687, 0.0101475},
	{-0.0108158, -0.022945, 0.104637, 0.00605355, -0.0303011, -0.0781509, 0.0187966, -0.029222, -0.0661447, 0.0247278, 0.017036, -0.00298512, -0.0168348, 0.015489, 0.0623898, -0.0134687, 0.0188371, -0.0807638, 0.0323249, -0.024981, 0.098288, 0.0276162, 0.0238788, -0.00875466, -0.0142601},
	{0.0121061, 0.00395459, 0.0154898, -0.0121219, 0.00202596, 0.00255609, 0.000699274, -0.00537803, -0.0207886, 0.0114641, 0.0290735, -0.0283108, 0.0282811, -0.0282843, -0.0199455, 0.00538748, 0.0255982, 0.0026734, 0.0228968, -0.00267421, -0.0327716, -0.0269363, 0.0277553, -0.0188562, 0.00285602},
	{-0.018184, -0.00193666, -0.00349234, -0.0127953, -0.0242595, -0.0485384, -0.0330026, 0.02818, -0.0108356, 0.00397603, -0.0347354, 0.00665368, -0.016834, -0.00808122, 0.0416009, 0.0228968, 0.0309662, -0.0321221, -0.0316514, 0.00061256, 0.0901916, -0.00876113, 0.0049314, -0.0195296, 0.0491683},
	{-0.0188328, -0.000559721, -0.0444057, 0.0127955, 0.0235559, 0.0253169, -0.0100543, 0.00283055, 0.0936539, -0.020791, -0.0612457, -0.0328374, 0.0262662, -0.0148156, 0.00642405, -0.0141421, 0.0296365, 0.0675338, 0.0228968, -0.0282753, -0.0249771, -0.0262696, -0.0528202, -0.0242437, 0.0100803},
	{-0.0269557, -0.0222303, -0.0292228, 0.001348, -0.0329691, 0.00823763, -0.0202811, 0.00461978, 0.0539045, -0.0310601, -0.0691004, -0.0275943, -0.00336322, -0.0269374, 0.0234487, -0.0316514, 0.0309515, 0.0472692, 0.0296311, -0.00406743, -0.0243539, 0.0255872, -0.0481395, -0.030978, 0.0120076},
	{-0.032981, 0.00617439, -0.10567, 0.0208765, 0.031645, 0.0525966, 0.0215764, 0.02704, 0.105406, -0.0268638, -0.0920578, 0.0156891, -0.0181791, -0.00740779, 0.026905, -0.00740779, 0.0202044, 0.108619, 0.00538748, 0.00607081, 0.0151848, -0.0229039, -0.0265737, 0.00471405, 0.0254101},
	{-0.0316559, -0.0101169, -0.00543128, 0.00404082, -0.0141348, 0.0200089, 0.00873424, 0.0248936, 0.03638, -0.0107944, -0.0327693, -0.00467679, -0.0033628, -0.0222234, 0.0148359, 0.0329983, -0.0181876, 0.0226856, -0.0188562, 0.0336723, -0.0125038, 0.0181839, 0.00727666, 0.0269374, 0.0337664},
	{-0.0249105, -0.0330051, -0.0499067, -0.030978, 0.0134745, 0.0522993, 0.0262562, -0.0322778, 0.0447036, 0.00406815, -0.0464729, -0.0315875, 0.024244, 0.0222234, 0.000655916, 0.026264, -0.0154828, 0.000474672, 0.00538748, -0.0114226, -0.0510243, 0.0134694, -0.00739324, -0.0188562, 0.0342301},
	{0.0181817, -0.0135009, 0.0101729, 0.0289577, -0.016163, 0.00147596, -0.0100912, 9.88142e-006, -0.00403951, -0.024883, -0.00836218, 0.00742593, -0.0208765, 0.00269374, -0.00441129, -0.0175093, 0.0202048, 0.0337238, 0.0255905, -0.0134628, 0.00424538, -0.00807933, 0.00888784, 3.2647e-010, 0.0314532},
	{0.0309813, 0.0323282, -0.023453, 0.0249171, -0.0296307, 0.00531988, 0.0222324, 0.00404568, -0.00336776, -0.0235419, -0.0488668, -0.0221928, 0.0148192, 0.0249171, 0.0268084, -0.0242437, 0.0040403, 0.0309961, 0.00269374, -0.024916, -0.00254013, -0.0114496, -0.0146992, -0.0242437, 0.0181907},
	{-0.0202895, 0.00342123, 0.00187679, 0.0221893, 0.0236614, -0.00390269, 0.0275073, -0.0231944, -0.00765854, 0.00500319, -0.167636, -0.000389175, 0.015689, 0.0114484, 0.0217507, 0.00673404, 0.0275089, -0.0122212, 0.00272372, -0.0175561, 0.00421756, -0.0260332, -0.0783462, 8.1909e-008, 0.0707151},
	{-0.0241814, 0.0170071, 0.00978964, 0.0127929, -0.0209991, 0.00890571, -0.0294143, 0.00620731, 0.00931629, -0.0315698, -0.0133093, 0.0187971, -0.0235382, -0.0235702, -0.00470754, -0.0101015, 0.016902, -0.00730971, 0.00673409, -0.0107854, 0.0320828, 0.0255788, 0.0331189, -0.0208765, 0.0111141},
	{0.0161302, 0.0142396, 0.110531, 0.012789, 0.0289189, -0.0471155, -0.0316781, 0.0204774, -0.0930028, -0.0150718, -0.0518687, 0.0333349, -0.0147817, -0.0161624, 0.0514272, -0.0168359, -0.0175359, -0.0688341, 0.00808135, 0.0213987, 0.0507791, -0.0114527, -0.0397401, 0.0296311, -0.0251423},
	{-0.0121161, 0.0289832, 0.0251429, -0.0181827, 0.0249122, -0.0403822, -0.0330003, 0.0255067, -0.0190102, -0.0242827, 0.0488747, 0.0140451, 0.0141398, -0.00942809, 0.0298457, -0.0255905, 0.00740042, -0.00205821, 0.0121218, 0.0242347, 0.0524123, -0.00606228, 0.0366263, 0.030978, -0.00385288},
	{-0.020251, -0.0162021, 0.119193, 0.0303044, 0.00606539, -0.0997176, 0.0147467, 0.0110736, -0.0590236, 0.029398, 0.0432192, 0.0232367, -0.0208785, 0.0101015, 0.0296054, 0.0020203, -0.0330216, -0.067243, 0.00740787, -0.0155929, 0.0482251, 0.00540049, 0.0323012, -0.0228968, -0.00219852},
	{-0.014836, -0.00415929, 0.0129002, 0.0101015, -0.0269285, 0.0299399, 0.0249468, 0.0107978, 0.0123518, 0.0188701, 0.0697195, -0.0161902, -0.0148303, -0.0134687, -0.0276614, -0.0175093, -0.0195196, -0.0421183, 0.00875466, -0.0174918, 0.0217003, -0.008076, 0.0349269, 0.030978, -0.04052},
	{0.0101004, 0.00752719, -0.0204297, -0.0222234, -0.0128145, -0.0884179, -0.0255938, 0.0146583, -0.0314136, -0.00143324, -0.0139612, -0.0196154, 0.0276134, -0.0168359, 0.0774335, 0.00942809, -0.00608494, -0.00950982, 0.00875466, -0.0135388, 0.0448753, -0.0242441, -0.0117178, 0.0195296, 0.0376833},
	{-0.0282551, 0.0189857, -0.114535, 0.00606569, -0.006752, -0.0480211, 0.00746283, 0.00554662, 0.0512953, 0.018948, -0.10155, -0.0240433, 0.0255962, -0.0323249, 0.0101897, 0.00740778, -0.0141376, 0.10762, 0.0235702, -0.0296209, 0.0119924, -0.0255966, -0.073743, -0.00942809, 0.0556216},
	{0.0154628, 0.000682666, -0.0252177, 0.0242437, 0.00475268, -0.0432699, -0.0155692, 0.00524591, -0.00050749, 0.00528797, -0.0646299, 0.0148138, 0.0134784, 0.00808122, 0.0437955, -0.0181827, -0.0215825, -0.00898394, -0.0215499, 0.0316248, 0.0463917, -0.00538843, -0.0450613, -0.0134687, 0.00553949},
	{0.0108083, 0.00688106, -0.100123, 0.0316514, 0.00402711, 0.0114824, 0.00879023, 0.0236964, 0.0668835, 0.00347087, -0.0991933, 0.00564264, 0.0134997, -0.0114484, 0.0109722, -0.0282843, 0.0228963, 0.0626, -0.00942809, 0.012131, -0.00532168, 0.0174987, -0.0673478, -0.0175093, 0.0554309},
	{0.00336116, -0.0255959, -0.0242813, 0.0175093, 0.00674246, 0.0068825, -0.018873, 0.0141175, 0.000487293, -0.010111, -0.0696181, 0.0229486, 0.000681155, 0.0329983, 0.0105844, -0.0323249, 0.029624, 0.00931454, -0.00808122, -0.0101043, -0.0151502, 0.0296328, 0.00233207, -0.0296311, 0.019377},
	{-0.000660469, 0.0215524, -0.0522919, -0.0242437, -0.00538077, 0.0418766, 0.00404448, -0.00463464, 0.0225924, -0.025573, -0.00893914, -0.0167579, 0.0195301, 0.0020203, -0.0295538, 0.0316514, 0.016167, 0.0111155, -0.0242437, 0.0175298, -0.02269, -0.0208768, -0.0333701, -0.0215499, -0.00893606},
	{-0.0249169, 0.0309552, 0.0177984, -0.0121218, -0.00606089, 0.0263931, 0.0242574, 0.027628, 0.0282176, 0.0269635, 0.0293134, -0.00267126, 0.00268952, -0.0235702, -0.00157827, -0.00606092, -0.00336214, 0.00238001, -0.00942809, 0.00674847, 0.0282678, -0.0296308, 0.0147609, 0.0215499, -0.0309051},
	{-0.0134651, 0.0175218, -0.0292546, 0.0289577, 0.0323253, -0.00863526, 0.00472446, 0.00809413, -0.0114743, 0.0121438, -0.0260711, -0.0134297, -0.00605854, -0.0242437, 0.0225333, -0.0323249, 0.0188566, -0.0190712, 0.0228968, -0.0242399, 0.0370391, -0.0168359, -0.0430314, 0.0289577, 0.0211006},
	{0.0127078, -0.0166092, -0.0581202, 0.0235408, 0.0196165, 0.0175218, 0.0287921, 0.00898714, 0.0612007, -0.00446643, -0.171464, -0.0320064, -0.0193046, 0.00942809, -0.00186549, 0.00942807, -0.0277611, 0.0407143, 0.026968, -0.0068668, 0.0160929, -0.00448515, -0.0935596, -0.0242437, 0.0756545},
	{-0.0302468, -0.020654, 0.00521533, 0.000670464, -0.0297578, -0.0128982, -0.00651699, -0.0308786, -0.0315979, 0.0330757, -0.0174864, 0.0235122, -0.000627956, 0.0148156, 0.029676, -0.0242437, 0.0175627, -0.0189469, -0.0249171, -0.00205954, 0.0501948, 0.0134491, 0.00160408, -0.0202031, 0.023093},
	{0.0268939, -0.00314653, 0.0865191, -0.00607154, -0.00274929, -0.11334, -0.0209452, 0.0136276, -0.0923451, -0.0177945, -0.029287, 0.0151323, 0.00207002, 0.0255905, 0.0752335, 0.00942809, -0.0323783, -0.104726, -0.0175093, -0.0150498, 0.0568811, 0.0134609, -0.0327474, 0.010775, -0.0178486},
	{-0.00403952, -0.00135087, 0.0728816, -0.00404279, -0.00808906, -0.0730131, 0.00944198, -0.0001019, -0.0163688, 0.0262119, 0.0235659, -0.0277553, 0.00739479, -0.0188562, 0.0432399, 0.00336717, 0.0262639, -0.0459233, 0.0276108, -9.12614e-006, 0.0419995, -0.012796, -0.0124172, -0.000673436, 0.015784},
	{-0.00881751, 0.022902, 0.0871758, -0.015495, 0.0242446, -0.066826, 0.00259137, -0.0139057, -0.0969866, -0.000949592, 0.0377405, 0.00635944, 0.00538126, 0.0114484, 0.0401203, 0.00404061, -0.0209184, -0.109224, -0.0255905, -0.0162894, 0.067926, -0.0323249, 0.025694, 0.0316514, -0.00531371},
	{-0.0229115, 0.0100066, -0.000283285, 0.0175093, -0.0242336, 0.00228363, 0.0316748, -0.000629714, 0.00783115, -0.0154693, 0.0107148, 0.0161504, -0.0134831, -0.0303046, -0.0369843, -0.015489, -0.0249051, 0.0110439, 0.0296311, 0.0108057, -0.00926066, -0.00874906, 0.0138103, -0.0235702, 0.0123835},
	{0.00471492, 0.00217721, 0.00649377, -0.00740786, 0.0222043, -0.0815722, -0.0229156, -0.0122892, -0.0213281, -0.00548463, -0.023555, -0.0256726, -0.00805979, 0.0249171, 0.0892929, 0.000673436, 0.0087259, -0.0218836, 0.0296311, 0.00260068, 0.0749147, 0.00200969, -0.0456535, 0.00875466, 0.0220282},
	{0.00341703, -0.0308116, -0.0885282, -0.030978, 0.00469902, -0.0396156, -0.0167863, -0.0213849, 0.0458112, -0.0268458, -0.101017, -0.0327674, 0.020886, -0.0208765, 0.0337883, 0.000673436, 0.00404164, 0.0870238, 0.0101015, -0.0309636, 0.0643833, -0.00406726, -0.0816638, -0.0316514, 0.0792768},
	{0.0269156, -0.000632822, 0.0119999, 0.00269479, 0.0168715, -0.035839, -0.0317498, -0.0176568, 0.00238212, 0.0133557, -0.0287664, 0.00674045, -0.0276048, -0.0202031, 0.0244358, -0.030978, -0.00274152, 0.0349128, -0.0303046, 0.0289125, 0.0385802, -0.0242474, 0.00921093, 0.0269374, 0.00665775},
	{-0.00735643, -0.00787717, -0.127423, 0.0080831, -0.0101157, -0.0276469, 0.00811854, 0.00690044, 0.114345, -0.0227954, -0.12488, -0.00777678, 0.0135109, 0.00606091, -0.0255753, 0.0148156, 0.0100957, 0.0745998, -0.0228968, 0.00405033, -0.0215805, -0.0128208, -0.0801444, -0.0249171, 0.103972},
	{0.022222, 0.00338597, 0.00134356, -0.026264, 0.0235752, 0.0556118, 0.0208487, -0.0228935, 0.0177818, -0.0053905, -0.0553906, 0.0202685, -0.026264, 0.0329983, -0.00488207, 0.026264, 0.0188477, 0.00872357, 0.00471405, 0.0269354, -0.0635841, -0.0276087, -0.01843, 0.0276108, -0.0116757},
	{0.00943663, -0.0141373, 0.00745123, 0.0195296, -0.0329957, 0.0462585, 0.0242518, 0.0169033, 0.028485, -0.0107612, -0.0285593, 0.0027791, 0.0309778, 0.0127953, -0.0387798, 0.0181827, -0.0134635, 0.0175692, 0.0329983, -0.0269209, -0.00823694, 0.0249171, 0.00864262, -0.0222234, 0.00603533},
	{0.0121215, -0.014167, 0.0314502, 0.0101015, -0.0188572, -0.0312356, -0.0154779, -0.0221802, -0.0292573, -0.0154736, 0.022754, 0.0256166, 0.0215494, 0.0101015, -0.0081657, 0.0249171, -0.0188507, 0.00275384, -0.0188562, 0.0101214, -0.0219712, -0.0228969, -0.0250621, 0.0161624, -0.0184068},
	{-0.00538161, -0.00262988, 0.00621855, -0.0175093, -0.0121231, -0.0587399, 0.0128053, -0.020873, -0.0262419, -0.0282754, -0.0648901, 0.0215939, -0.0249169, -0.00875466, 0.00656552, -0.0235702, -0.0269381, 0.0292425, 0.00471405, 0.0276116, 0.0596685, 0.0316514, -0.0191839, 0.00336717, 0.0255959},
	{-0.0290507, -0.00305264, -0.0689886, -0.0249415, -0.0100107, 0.0222695, -0.0110582, 0.000899018, 0.0486784, -0.0334372, -0.0903562, 0.00107085, 0.0130292, 0.0202031, -0.0205807, -0.0175093, -0.0224199, 0.0740429, 0.00677122, 0.0321367, -0.0295637, 0.0318917, -0.0578581, -0.010775, 0.0516559},
	{-0.0181266, -0.00176682, 0.0397342, -0.00808294, -0.0162868, -0.0250045, 0.00624664, -0.0315641, -0.0389129, 0.0330635, -0.0213891, 0.028911, -0.0329831, 0.0195296, 0.0476305, 0.0020203, -0.000627598, 0.00867572, -0.00605976, -0.0229511, 0.0401754, 0.00873548, 0.00663341, -0.00875466, 0.0316123},
	{-0.020933, 0.0325979, 0.0533708, 0.00133353, -0.0222715, -0.0947472, -0.000165012, -0.0167651, -0.0522006, -0.0137971, 0.00185375, -0.006406, 0.00746682, -0.00134687, 0.0600437, 0.00404061, 0.0174136, -0.0409196, 0.00808431, 0.0030721, 0.115864, -0.00202779, -0.0183914, -0.00202031, 0.0135333},
	{0.0134653, -0.00742519, 0.0790531, 0.0175093, -0.0229033, -0.0921711, 0.0175364, -0.0230478, -0.0677226, -0.0101784, 0.0169988, -0.0298185, 0.010092, 0.00538748, 0.0674133, 0.00808122, -0.0168358, -0.0609927, 0.0134687, -0.012812, 0.058082, 0.000668959, -0.0107454, -0.0161624, -0.0205873},
	{-0.00815821, -0.00872565, 0.107383, 0.0195283, 0.0296283, -0.0899569, -0.0236934, 0.00955636, -0.0653939, -0.000307496, 0.0597276, -0.0300344, -0.00808409, -0.0303046, 0.0476789, -0.0175093, 0.0100371, -0.0933107, -0.0276108, 0.0126236, 0.107202, 0.0242519, 0.0352117, 0.0161624, -0.0350357},
	{0.0302924, 0.0181068, -0.000172363, 0.0316514, 0.0154996, 0.00661217, -0.00602074, 0.0168885, -0.0323632, -0.00401579, 0.0140545, -0.00540667, 0.0269327, -0.0202031, 0.00413788, -0.0296311, 0.0242588, -0.0342341, 0.000671611, -0.0228658, -0.0290813, 0.01011, 0.0319336, 0.0296311, -0.00476513},
	{-0.026941, -0.0328961, 0.0659843, 0.0161624, 0.026918, -0.0893854, 0.0154516, 0.0125833, -0.0171041, -0.0122317, 0.0132005, -0.0155822, -0.0262608, -0.0181827, 0.0896773, 0.0202031, -0.0262949, -0.0250606, 0.0222234, 0.0281997, 0.141029, 0.0100966, 0.0043975, 0.0101015, -0.00199958},
	{0.00409965, 0.00759603, -0.0668361, 0.0154917, -0.0188653, -0.0515749, -0.00129629, 0.0190755, 0.101772, -0.0295319, -0.0604078, 0.0305915, 0.000715946, -0.00404061, 0.0314027, 0.0215499, -0.0249143, 0.0992837, -0.00673434, -0.0141148, 0.0177868, 0.00873226, -0.0474251, -0.0276108, 0.0584586},
	{-0.0276304, -0.0174475, -0.00891301, -0.0101004, -0.03027, 0.00724623, -0.0203168, 0.00588646, 0.0146904, -0.029071, -0.0252347, -0.0329771, 0.0121321, 0.0289577, 0.0352758, -0.0114484, 0.00466092, 0.0352243, -0.00134428, -0.0189071, 0.0398359, -0.0181852, -0.0334519, 0.0181827, 0.0494873},
	{-0.000600237, -0.0172792, -0.108484, -0.0208765, 0.018174, -0.00477356, -0.0255668, 0.0224541, 0.11245, 0.0277314, -0.165564, -0.0164781, 0.0249363, 0.0188562, 0.00995903, -0.00404061, -0.0101082, 0.140356, 0.0127953, 0.0128146, 0.0126865, 0.031651, -0.0613625, -0.0141421, 0.0767619},
	{-0.0154852, 0.0148435, -0.0130809, -0.0249171, -0.0309724, 0.0325357, -0.0276416, -0.00264146, 0.00703888, 0.0242536, -0.048608, -0.00798113, -0.00402993, -0.0242437, -0.0606324, 0.000673436, -0.0141516, 0.0154069, 0.000673124, -1.34554e-007, -0.0215049, 0.00336853, -0.00657163, 0.0215499, 0.0224767},
	{0.0121341, -0.0242237, -0.0199578, -0.0101015, 0.0154969, 0.063866, -0.0127966, -0.0322419, 0.0348615, 0.0188753, -0.0351421, 0.0142601, -0.0316514, 0.0101015, -0.00913195, 0.0276108, -0.017505, 0.0375158, -0.0175093, 0.0202196, -0.0247437, 0.0134631, -0.0395778, -0.00471405, -0.00844235},
	{0.022222, 0.0060252, -0.0114878, 0.0255905, 0.0141404, -0.0130627, 0.00136558, 0.00611594, -0.0247833, 0.00744087, 0.0257196, 0.0249339, -0.00471673, -0.026264, 0.0113261, -0.0141421, -0.0100904, -0.00449907, -0.0208765, -0.0309634, 0.0142585, 0.010775, -0.00477918, 0.0215499, 0.000758119},
	{0.000684133, -0.0234917, 0.0172516, 0.00606118, 0.00807973, -0.0271679, 0.00472699, -0.0282827, 0.037191, 0.0269486, -0.0650938, 0.0108189, 0.0175095, 0.0249171, 0.0453104, -0.010775, 0.00740248, 0.00616468, -0.000672884, -0.0141458, 0.0621878, -0.0107809, -0.035619, 0.0114484, 0.0205756},
	{-0.027712, 0.0313448, -0.104802, 0.0289351, 0.0243258, 0.0377604, -0.00238549, 0.00817137, 0.0565795, 0.0271291, -0.0887758, 0.00111282, -0.0017845, -0.0114484, -0.0423386, -0.0276108, 0.00851179, 0.096882, -0.00400219, -0.00090356, -0.0863634, -0.00512974, -0.0170914, -0.0329983, 0.00706371},
	{-0.000616246, -0.0171971, 0.0167775, 0.016835, -0.0109062, -0.00869587, -0.0328383, 0.00341615, 0.0132579, 0.0323637, -0.0149132, 0.0208485, 0.0195764, -0.0121218, 0.016474, -0.00606092, 0.0256153, 0.0183952, -0.0161624, 0.0228281, 0.0264018, 0.0289447, 0.0267704, 0.0020203, -0.021449},
	{0.007341, -0.009701, 0.0613787, 0.0323248, 0.0241894, -0.119028, -0.00628714, -0.0303671, -0.0318497, 0.028578, 0.0027687, -0.000299149, 0.0195956, 0.0202031, 0.0815468, 0.0188562, 0.0160203, -0.035456, -0.0195296, 0.0320201, 0.0939083, 0.0181806, 0.0284895, 0.0222234, 0.0210274},
	{0.00671977, -0.0209104, 0.103866, 0.00672801, -6.04465e-006, -0.0717767, 0.0155243, 0.0207058, -0.0893179, 0.0120619, -0.0145368, 0.0186478, -0.0309811, 0.0141421, 0.0226244, 0.0316514, 0.0168388, -0.089533, -0.0255905, -0.0202137, 0.0618415, 0.00471131, 0.0385288, 0.00942809, 0.00831508},
	{-0.0223036, -0.0113974, 0.120297, -0.00540442, 0.00335838, -0.104245, 0.00859552, 0.0310322, -0.0923148, -0.0231937, 0.0429676, 0.0332907, -0.00875396, 0.0208765, 0.0884814, -0.0114484, 0.0255087, -0.0860341, -0.00605796, -0.0217308, 0.0550856, 0.0141581, 0.0312458, 0.0222234, -0.0425403},
	{-0.0175184, 0.00594834, -0.0100248, -0.0188562, 0.0309851, 0.0416475, -0.0221765, 0.0196238, 0.00306667, 0.0202428, 0.0398449, 0.0188319, 0.000644235, -0.0282843, -0.0259195, 0.0215499, 0.0309987, 0.00358098, 0.0181827, 0.00275253, 0.0260488, 0.0235731, 0.0311948, 0.0296311, -0.0483451},
	{0.0154854, -0.00388176, 0.0117414, -0.0235702, 0.0127744, -0.0894807, 0.0282494, 0.0159486, -0.0331748, -0.00077581, -0.0306342, 0.0248546, -0.00333638, -0.00202031, 0.0960118, -0.0215499, -0.0135137, -0.0390284, 0.0168359, 0.0282039, 0.124156, -0.0249178, -0.0289707, 0.0296311, 0.0718999},
	{-0.0228308, 0.00021938, -0.0952578, -0.00604549, 0.00201089, -0.0400294, 0.00141527, 0.0258618, 0.075222, 0.00888479, -0.123606, 0.0232248, 0.030318, 0.0208765, 0.0661663, 0.010775, 0.0107795, 0.0762142, 0.00808122, 0.0195653, 0.0665596, 0.0195174, -0.0862194, -0.0255905, 0.103955},
	{-0.0027025, 0.0142475, -0.0172557, 0.0269374, 0.000709732, -0.0200095, -0.0109025, 0.0106149, 0.00931729, 0.0221394, -0.0868191, -0.0113761, 0.0316539, 0.0121218, -0.00359672, 0.0222234, -0.0263178, 0.0324515, -0.0121218, 0.0255361, -0.00611596, 0.0202011, -0.0568284, -0.00740779, 0.0450114},
	{-0.00125805, -0.0273433, -0.145718, 0.018183, 0.00672318, 0.0367601, -0.0181561, 0.0117145, 0.1479, 0.00419076, -0.17896, -0.0231787, 0.00747064, 0.00269374, 0.0219132, -0.000673436, -0.0309845, 0.14164, -0.0121218, 0.0222409, -0.00291658, 0.0323248, -0.124941, 0.0020203, 0.0899885},
	{0.0316561, 0.021571, -0.0810701, 0.00404323, -0.00134052, 0.0324097, -0.0209069, -0.00935761, 0.0670147, 0.0168444, -0.0363182, 0.0331116, 0.0168377, 0.00269374, -0.0520278, -0.00942809, -0.00405159, 0.0808859, 0.00269363, -0.0114467, -0.0525105, 0.0208789, -0.0367285, 0.0195296, 0.0144085},
	{-0.0323099, 0.00812685, -0.0444498, 0.00404465, 0.00944037, 0.037485, 0.0161515, 0.00822438, 0.056403, 0.0161893, -0.0370662, 0.000834794, 0.0027086, 0.0215499, -0.0137333, 0.0336718, -0.0262625, 0.0614751, 0.010775, 0.0155116, -0.0860585, 0.0215482, -0.0520159, 0.0181827, 0.039887},
	{-0.00134476, 0.0275544, -0.000623266, -0.0296311, 0.0154881, -0.00436025, 0.0269639, -0.0194358, 0.0232063, -0.0120713, -0.0158148, 0.0296508, -0.0289575, 0.0195296, -0.00721458, -0.0289577, 0.0148305, 0.0241801, 0.0316514, 0.032333, -0.0280398, 0.0303046, -0.0189531, 0.026264, -0.0266172},
	{0.0235775, 0.0135547, -0.00535253, -0.0215499, -0.0228999, -0.0370858, 0.0235792, 0.0127953, -0.0077919, -0.0141292, -0.0316372, -0.0208451, 0.0276111, 0.0336718, 0.0431186, 0.0249171, 0.0336677, 0.000495089, -0.026264, 0.0148081, -0.00658574, -0.0228972, -0.0079587, -0.0208765, 0.0506542},
	{-0.013562, 0.00978172, -0.0591812, -0.00338774, 0.0270102, 0.0122306, 0.00294965, -0.0202263, 0.0581446, -0.0153243, -0.0441745, 0.0139595, 0.0123553, 0.0296311, -0.00191736, -0.00808126, -0.0272123, 0.0279753, 0.0188902, -0.0298683, -0.0335361, -0.0179087, -0.0605256, -0.0329983, 0.0262262},
	{-0.00801768, -0.00704663, 0.0445366, 0.00404117, 0.0268076, -0.0358939, 0.0216906, 0.0296462, 0.00357885, 0.0256319, 0.0267933, 0.0296304, -0.0215021, -0.0323249, 0.0404359, -0.00134687, 0.0107883, -0.014855, -0.0303046, 0.0234959, 0.0625534, -0.0161722, -0.0160069, 0.0101015, 0.0206811},
	{0.0154279, -0.0284956, 0.0838272, -0.00405048, 0.0295679, -0.096223, 0.0206174, 0.0119235, -0.100323, -0.024642, 0.0626019, 0.00108328, -0.0221569, 0.0202031, 0.0835231, -0.00606092, -0.0123061, -0.0842849, 0.0202031, 0.00907224, 0.124149, 0.00269552, 0.00324774, 0.030978, 0.00610469},
	{0.0168183, -0.019538, 0.0682755, 0.0208765, 0.0181752, -0.0578044, -0.0161194, 0.0146351, -0.087604, 0.006658, 0.0335835, -0.0318481, -0.0114567, -0.0296311, 0.0489044, 0.0175093, 0.00875583, -0.0488886, 0.00875466, 0.020856, 0.0504663, 0.0323243, -0.016796, -0.0276108, 0.00492088},
	{-0.00615973, 0.0182506, 0.128122, 0.0296263, -0.00607537, -0.0903756, 0.0166652, 0.0154617, -0.0713531, 0.0205626, 0.0734833, 0.0151089, -0.0329993, -0.0282843, 0.0636743, 0.0114484, -0.00549356, -0.0851777, 0.0215499, 0.0125897, 0.0671582, 0.0316518, 0.024314, -0.0269374, -0.0673179},
	{-0.00876527, 0.00390327, 0.0245371, -0.00404268, -0.00470458, -0.00999505, -0.0181301, -0.0248247, -0.0123432, -0.0208192, 0.0237932, -0.0215671, -0.0235744, 0.000673436, 0.0224897, -0.00942809, 0.00676848, 0.0032771, 0.030978, -0.0309294, -0.00841273, 0.0202047, 0.0414543, -0.0296311, 0.0175467},
	{0.00807277, 0.0216732, 0.0352574, 0.00269103, -0.0107981, -0.112891, 0.025555, -0.00498741, -0.0185454, 0.0228069, -0.061702, -0.0236332, -0.0208746, -0.00336718, 0.0901418, -0.0134687, 0.00196643, -0.0152634, 0.0134687, 0.0140523, 0.0850787, -0.00135917, 0.00175726, 0.0255905, 0.0262958},
	{0.0182605, -0.0173095, -0.101767, 0.0202032, 0.0276049, -0.00519061, -0.0261934, 0.0151135, 0.0842379, -0.0187033, -0.133102, 0.0232191, 0.0269472, 0.00404061, 0.0519208, 0.0202031, -0.0289493, 0.104199, -0.00942809, 0.0256387, 0.0784467, -0.0107993, -0.06116, -0.00942809, 0.124303},
	{0.0296243, 0.0277275, -0.0221016, 0.010778, -0.032299, -0.0553844, -0.028417, 0.0119668, 0.0435718, -0.0101576, -0.0517464, 0.00547568, 0.0329992, -0.00269374, 0.0474836, -0.0208765, -0.0074762, 0.0322145, 0.015489, 0.00936845, 0.0160086, 0.010098, -0.0732364, -0.0175093, 0.0722071},
	{-0.0302147, -0.0320547, -0.153927, 0.0323249, 0.0289502, 0.0148278, 0.00943976, -0.032068, 0.128105, -0.0187278, -0.154535, -0.0184663, -0.00263114, -0.026264, 0.0389722, -0.00538748, -0.0181923, 0.103461, 0.00134787, -0.0228772, 0.0105634, 0.0296181, -0.104389, 0.0202031, 0.131711},
	{-0.027604, 0.00339911, -0.0841206, -0.0282843, -0.0026859, 0.0389545, -0.00341254, 0.0276471, 0.0450195, 0.0033814, -0.0777586, -0.0173836, -0.0161606, 0.0195296, -0.0475972, 0.0215499, -0.0128066, 0.0464589, -0.0175093, 0.0303051, -0.0610579, -0.0020189, 0.00186807, -0.00269374, -0.00668476},
	{-0.0222012, 0.000754031, -0.0589143, -0.00740188, 0.00944163, 0.053241, 0.032303, -0.0268003, 0.0505187, -0.0168186, -0.0743482, -0.00791853, 0.0168366, -0.0195296, -0.0274341, 0.0296311, 0.00404056, 0.0611976, 0.00808122, 0.00473512, -0.101525, 0.0235698, -0.00654897, 0.0222234, -0.000937811},
	{-0.00538956, -0.0115147, 0.00501882, 0.0202031, 0.0202049, 0.0333399, 0.0121464, -0.00868894, -0.00170271, -0.0208519, -0.0292724, -0.0141333, -0.0202031, 0.0188562, -0.0146156, 0.0282843, 0.00473346, 0.0460712, 0.00740778, -0.0323177, 0.0201023, -0.0114493, -0.0135625, 0.0208765, 0.0194475},
	{-0.0282745, 0.0236669, -0.00456793, -0.0202031, 0.0276061, -0.00567296, -0.00538224, 0.00131549, 0.00396415, 0.0275914, -0.0293795, 0.0155055, 0.0282845, 0.0269374, 0.0452061, 0.0276108, -0.00674581, 0.0459068, 0.00269388, 0.00941682, 0.0453245, -0.0309782, -0.0553884, 0.0181827, 0.0457708},
	{0.029525, -0.00920101, -0.0723264, 0.0329763, 0.0249864, 0.020869, -0.0273876, -0.0243422, 0.0752021, -0.0186617, -0.0987732, -0.00823705, -0.0145985, 0.0215499, 0.0179515, 0.0195296, 0.026659, 0.0446094, -0.0040051, -0.0109877, -0.0285209, 0.000283821, -0.0789554, -0.0282843, 0.00955154},
	{-0.00531599, 0.0259353, -6.76846e-005, 0.0282843, -0.00821505, -0.06534, -0.0328705, -0.0222305, 0.0212648, 0.00881439, -0.00831085, -0.0154531, -0.0262144, 0.0188562, 0.0450179, 0.00740778, 0.0269454, -0.0307833, 0.0168359, 0.00935666, 0.0243083, 0.0309683, 0.00243764, 0.00740778, 0.00446558},
	{0.0262057, -0.0251622, 0.0762704, 0.0121164, -0.0162252, -0.119286, 0.0266626, -0.00565144, -0.0647253, -0.00173473, -0.00638754, -0.0217617, 0.0337049, -0.0175093, 0.0676197, -0.030978, -0.000878975, -0.069321, 0.0141488, -0.00910019, 0.141965, 0.0121292, 0.00558706, -0.0296311, -0.00267353},
	{0.00873628, -0.0201621, 0.0921523, 0.0047063, -0.0121324, -0.0481179, -0.00333253, 0.0281187, -0.0869367, 0.0262015, 0.00899633, 0.000498054, -0.0202008, 0.015489, 0.0892081, 0.0228968, -0.0107779, -0.0491689, -0.00471389, 0.0134423, 0.0475033, 0.00335217, 0.0314238, 0.0242437, -0.0033029},
	{-0.0108731, 0.0297074, 0.163545, -0.0309831, 0.000657625, -0.111651, -0.0183615, 0.0140995, -0.139076, 0.0273196, 0.0725972, -0.00573294, 0.00606297, -0.00134687, 0.0699976, 0.00606091, 0.0200985, -0.153072, 0.0228968, 0.0274243, 0.0714955, 0.0128076, 0.0226132, 0.030978, -0.0482307},
	{-0.0276173, 0.00792172, 0.00749433, 0.0303046, 0.0336822, 0.0561156, 0.0195868, -0.00457472, -0.00339827, -0.00529917, 0.0174412, 0.0134587, -0.00272541, 0.0208765, -0.042837, 0.0101015, -0.0262289, -0.000822808, 0.0242437, 0.0162268, -0.0569924, 0.00875918, -0.016684, -0.0316514, -0.00764872},
	{0.00335684, -0.0133361, 0.0646462, 0.0168359, -3.25936e-005, -0.123778, -0.00340268, -0.00363429, -0.0401758, -0.0209639, -0.0310649, 0.00935751, 0.00204597, 0.0161624, 0.105483, -0.0121218, -0.00140288, -0.0726405, 0.0134687, 0.0329391, 0.158775, -0.0309784, -0.0231026, 0.0202031, 0.0392365},
	{-0.00394726, -0.0180233, -0.0592601, 0.00943793, -0.0101076, -0.0295054, -0.0181077, -0.00574385, 0.058698, 0.0291046, -0.154684, 0.021179, 0.018864, -0.0222234, 0.0488944, 0.0195296, -0.019517, 0.0671535, -0.000674137, 0.0330347, 0.0642866, -0.00944939, -0.0817349, 0.0228968, 0.104474},
	{-0.0316627, 0.00883883, -0.0260298, 0.0141453, -0.0181497, -0.0150447, -0.0055206, 0.0247487, 0.0402288, -0.0215961, -0.0883921, 0.0290266, 0.0329988, 0.0121218, 0.0149819, 0.010775, 0.0268769, 0.00472528, -0.0202031, 0.021502, 0.00201346, -0.0127961, -0.0468267, -0.0121218, 0.0625755},
	{0.00213606, -0.0125052, -0.134673, 0.0101227, -0.0282885, 0.0272092, -0.0141263, 0.0218112, 0.15666, -0.026152, -0.165655, 0.015214, -0.00869951, 0.00673435, 0.00285279, -0.00606092, -0.010789, 0.132606, 0.0296311, -0.0127722, 0.0272469, 0.0296202, -0.085109, -0.030978, 0.125677},
	{0.02762, 0.00878075, -0.0921135, 0.0323249, 0.00135874, 0.0370127, 0.0275663, -0.0215073, 0.042884, -0.0309794, -0.0353139, 0.0230166, 0.00808536, 0.00673435, -0.0389412, 0.0249171, 0.00133296, 0.0643306, -0.0323249, -0.00605953, -0.0869444, 0.0323249, 0.000821189, 0.000673436, 0.0282532},
	{-0.0188327, 0.0175818, -0.061243, 0.0255905, 0.0148248, 0.0733966, 0.0336497, -0.0301988, 0.0814413, -0.00739378, -0.0795139, -0.0126399, 0.00808785, -0.0208765, -0.0670309, -0.00606092, -0.0141463, 0.0745952, -0.0181827, 0.0329993, -0.0485366, 0.0329983, -0.0355765, 0.0215499, 0.00118937},
	{0.0121157, 0.0295764, 0.0372377, 0.00808121, -0.0020195, 0.000392953, 0.0141679, -0.00734176, 0.0124539, 0.00405129, -0.0188612, 0.0147951, 0.00740398, 0.0020203, 0.00515343, -0.010775, 0.00405989, 0.00245772, -0.015489, -0.0323214, -0.0143468, 0.00673383, 0.0331673, -0.000673436, 0.0129653},
	{0.0289686, 0.0297333, -0.0285591, -0.00808122, -0.0309808, -0.00859071, -0.0255875, 0.0302631, 0.028144, -0.0148428, -0.011982, 0.0269575, -0.000654345, 0.0202031, 0.0256801, 5.70329e-008, -0.0121347, 0.0298912, 0.0175093, 0.0329956, 0.0421257, -0.00875874, 0.00209164, -0.0175093, 0.0309162},
	{-0.0135882, 0.000729235, -0.0700328, -0.0101251, 0.0263278, 0.0471834, -0.0266981, 0.0241893, 0.0199995, 0.00834743, -0.0848126, -0.0284059, -0.0179925, 0.0235702, 0.0207638, 0.0121218, -0.00227177, 0.0721669, -0.0127651, -0.0264243, -0.0511627, 0.0279051, -0.0530878, -0.00404061, 0.0108248},
	{0.0337324, 0.017152, 0.036529, -0.0289576, 0.00592134, -0.017568, 0.00619369, -0.026933, 0.0172337, -0.00126226, -0.0168451, -0.0208254, 0.010155, 0.0175093, 0.0128306, 0.0269374, -0.0309679, 0.00640602, -0.0249171, -0.00612143, 0.0613719, 0.0181753, 0.0175457, -0.00538748, 0.0453266},
	{0.0012813, -0.0265691, 0.120602, 0.0228963, 0.0241792, -0.107446, 0.000375144, 0.0240127, -0.0820173, 0.0212325, -0.010988, -0.031818, 0.0189058, 0.00875466, 0.0788545, 0.010775, 0.0152935, -0.0953612, 0.0242437, -0.0144611, 0.140873, 0.0269471, 0.0109515, 0.0228968, 0.0102721},
	{0.0107625, 0.00745328, 0.064918, 0.0195296, -0.0188621, -0.0849591, -0.0195027, -0.0149595, -0.0363318, -0.0101506, 0.0529685, 0.0173726, -0.00874852, -0.0101015, 0.0263673, -0.00808122, -0.0262674, -0.0405738, 0.0276108, 0.00469012, 0.106971, 0.0208678, 0.00785608, -0.00269374, 0.00977921},
	{-0.0162594, -0.0208101, 0.155806, -0.024922, -0.00809279, -0.0709003, -0.0298131, 0.00806541, -0.139493, 0.0287069, 0.0779766, -0.00165757, -0.00201884, -0.030978, 0.0586788, -0.0228968, -0.00684944, -0.11769, -0.0134687, -0.00288165, 0.137347, 0.0336718, 0.0385371, 0.015489, -0.0186991},
	{0.0087443, 0.0153449, 0.0245579, 0.0208765, -0.00739361, 0.0642716, -0.00464973, -0.0274887, -0.0376507, 0.0189418, 0.00712165, -0.0101316, -0.032325, 0.0195296, -0.00165102, 0.0134687, -0.0087132, 0.0106547, -0.00673442, -0.00732921, -0.0517129, -0.015483, 0.0282633, 0.0188562, -0.0116696},
	{-0.0168444, 0.0216878, 0.0260019, 0.00808126, 0.00872851, -0.155717, -0.000699075, 0.0307349, -0.0128115, -0.0222917, -0.0682099, -0.0283437, 0.029634, 0.0235702, 0.100936, 0.00673435, -0.0188964, -0.0368801, -0.00404058, 0.0127137, 0.159348, -0.0202039, -0.0307049, -0.00538748, 0.0741091},
	{0.0101915, -0.0173537, -0.113228, 0.0154994, -0.0134807, -0.0396921, -0.0228058, -0.0226152, 0.0813305, 0.0055399, -0.181128, -0.0327432, 0.00205662, 0.0296311, 0.0384139, -0.0134687, -0.000655073, 0.0769688, 0.0329983, -0.0167864, 0.0330553, 0.0168306, -0.109573, 0.0242437, 0.0973054},
	{0.0141291, 0.00883213, -0.0221923, 0.0235707, -0.0269105, -0.00236123, -0.0176311, 0.0240709, -0.0178115, -0.0168843, -0.0581872, -0.0295648, -0.0249131, 0.010775, 0.0316865, -0.0282843, 0.0187984, 0.0368623, -0.0303046, 0.0275699, 0.0140125, 0.0282844, -0.0595026, 0.0242437, 0.0323308},
	{0.0277147, -0.004451, -0.126867, 0.0249196, -0.0208842, -0.0126518, -0.0168199, 0.0325473, 0.157818, 0.00347698, -0.18511, -0.0272415, -0.0147665, 0.0296311, 0.0151722, 0.0114484, -0.0316571, 0.142333, -0.0329983, -0.0201835, -0.0219018, 0.0276019, -0.089404, -0.00673435, 0.123849},
	{-0.0276035, -0.0114375, -0.0568966, -0.0235702, 0.0255973, 0.0658593, 0.0167836, -0.0194928, 0.0424195, 0.003372, -0.00580351, -0.00526539, 0.0329977, -0.00471405, -0.0864095, -0.0188562, -0.0303135, 0.0620251, 0.00471403, -0.026938, -0.0919742, -0.0276079, -0.0080667, -0.010775, 0.0352964},
	{-0.0302804, 0.0242899, -0.0908617, -0.00470696, 0.0074146, 0.0789908, -0.0195611, -0.00393144, 0.0811611, 0.0256005, -0.048041, 0.0095752, 0.0282839, -0.0101015, -0.0784137, 0.00471405, 0.00807701, 0.0451823, -0.0255905, 0.00674588, -0.0761252, -0.00740857, 0.00109266, -0.0168359, -0.0175635},
	{-0.0282891, 0.0235564, 0.0106302, -0.0323249, 0.0269359, 0.00188524, -0.00536199, 0.0276661, -0.0268766, -0.0249312, 0.0185796, 0.00737886, 0.0296311, 0.015489, -0.0275486, 0.0181827, -0.00402732, 0.0112815, 0.0114484, 0.00135495, 0.0244338, -0.0141416, -0.00628123, 0.00808122, 0.00827466},
	{-0.0309678, -0.0133499, -0.0374159, 0.0289577, 0.00134111, -0.0445649, 0.0289514, 0.0140768, -0.00714543, 0.0154551, -0.0538864, 0.0303162, -0.0296307, -0.00606092, 0.0547598, 0.00875466, -0.0269516, -0.015695, -0.00740779, 0.00738217, 0.0656226, 0.0148127, -0.0226157, -0.00134687, 0.00690759},
	{-0.0190127, -0.0163436, -0.0440569, 0.0114194, 0.0276812, 0.0694172, -0.0158786, 0.00886197, 0.0379582, 0.00846156, -0.0788838, 0.0220742, 0.0068918, 0.00269374, -0.0541219, 0.0282843, 0.00518548, 0.0699846, 0.025613, -0.014231, -0.0643206, -0.0212453, -0.0183647, 0.00471405, 0.0438028},
	{0.00209215, 0.00362034, 0.00932317, -0.0107735, 0.00727148, -0.04962, -0.0119804, -0.00734841, 0.00791109, 0.0182917, 0.0149374, -0.023511, -0.0194929, 0.00269374, -0.00736025, 0.0134687, -0.022205, -0.0191951, -0.00471346, -0.0283211, 0.0418505, 0.00739529, -0.0151751, 0.0296311, 0.00513017},
	{-0.0216198, -0.00378444, 0.117428, -0.0235699, -0.0155543, -0.153101, -0.0103668, -0.0203176, -0.0696765, 0.0287378, 0.00135225, 0.00322412, 0.0114898, 0.0296311, 0.109952, 0.0175093, -0.0331526, -0.111362, -0.0329983, 0.00107352, 0.160567, 0.0202134, -0.0161859, 0.0188562, 0.0558925},
	{0.00807538, 0.0242899, 0.0500166, -0.0101022, -0.00337587, -0.0672266, 0.00945765, -0.0304483, -0.0327411, 0.0262053, 0.00716089, 0.00528632, -0.0127864, -0.0175093, 0.0612824, 0.0168359, -0.00203046, -0.0423465, 0.0215499, -0.0208912, 0.0530007, 0.0289461, 0.0379329, -0.0114484, -0.0195903},
	{0.00798414, 0.0283446, 0.124422, -0.0128065, 0.0329881, -0.0898811, 0.0281117, -0.033619, -0.0736902, -0.0217713, 0.0326305, -0.023803, 0.0309818, -0.00538748, 0.0680764, 0.0121218, -0.0142493, -0.0967173, -0.0269374, 0.0160075, 0.131347, -0.030975, 0.0379391, -0.0222234, 0.00512864},
	{0.0121131, 0.0241379, -0.0408123, -0.0127959, 0.00539632, 0.0671594, 0.0121923, -0.0261297, 0.0217045, 0.0256355, 0.0295318, 0.0188557, -0.00271592, 0.0101015, -0.0374448, 0.0148156, -0.00130027, -0.0115903, 0.0289577, -0.0255355, -0.0452622, -0.0296308, 0.0183151, 0.0148156, -0.0076281},
	{-0.00607432, -0.0126763, 0.0910054, -0.0195296, 0.0275917, -0.096306, 0.0329792, 0.024688, -0.0789236, 0.0268704, -0.0465142, -0.00343904, 0.0262662, -0.026264, 0.0734987, -0.0202031, 0.00668913, -0.0705015, -0.0269374, -0.0202691, 0.148478, -0.0222243, -0.0529601, 0.0316514, 0.0313882},
	{0.00614413, -0.012684, -0.0345993, -0.0289574, -1.07753e-005, -0.0120707, 0.0155808, 0.0076988, 0.0958566, 0.0034997, -0.1525, -0.00180097, -0.0134516, 0.0148156, 0.0128144, 0.00673435, -0.00535989, 0.047292, 0.026264, 0.0115065, 0.0134108, 0.0242405, -0.0580887, -0.0134687, 0.0818515},
	{0.00739551, -0.0275376, 0.0097923, 0.00875904, -0.0289342, -0.010376, 0.02008, 0.0321321, 0.0472018, -0.00746999, -0.0782558, 0.0229634, -0.00604725, 0.030978, 0.0436443, -0.010775, -0.0269911, 0.0259778, -0.0215499, -0.0101457, 0.038132, -0.0094275, -0.042088, 0.0296311, 0.0459846},
	{0.0297229, 0.0116308, -0.135025, -0.00603839, 0.0302981, -0.00155817, 0.0168559, -0.0246697, 0.148556, 0.00146216, -0.148928, -0.0212418, 0.028962, 0.0289577, -0.00144347, -0.0127953, -0.0242449, 0.153324, -0.026264, 0.0269563, -0.0189119, -0.0269415, -0.0748136, -0.00336718, 0.0995698},
	{0.0222297, 0.0134791, -0.0841923, 0.0296311, 0.0289626, 0.0594143, -0.023624, -0.0147695, 0.0209412, 0.0302909, -0.0589571, -0.0241339, -0.0255904, -0.0242437, -0.00889287, 0.0101015, -0.030989, 0.0850678, 0.00875466, 0.0215423, -0.060196, -0.0269359, -0.017177, 0.0127953, -0.00380784},
	{-0.0255642, 0.00338864, -0.10948, -0.0148148, -0.0107678, 0.0648234, 0.008715, -0.0146792, 0.0899449, -0.0215153, -0.0445805, -0.00454705, -0.0329983, -0.0329983, -0.0472651, 0.0181827, 0.00336497, 0.0705876, -0.0127953, -0.0121103, -0.0474151, -0.00808131, -0.0403852, -0.0181827, 0.00644656},
	{-0.0134697, -0.025578, -0.0178199, 0.00336605, 0.0208745, -0.0131042, 0.0296464, -0.0188138, 0.0227817, -0.0141628, 0.00333432, -0.0330138, 0.00404396, 0.0148156, 0.0255988, 0.0020203, 0.0175139, -0.013799, -0.00606092, -0.0101051, 0.0131198, 0.0249171, -0.010777, -0.000673436, -0.00484315},
	{0.0107913, 0.0317328, -0.0549763, 0.00875467, 0.00201589, -0.0586999, 0.0255781, 0.0100563, 0.0337425, -0.000702125, -0.0561078, 0.0141902, 0.000694644, 0.0222234, 0.0091985, 0.0296311, 0.0336606, 0.0172999, -0.00336688, -0.0121407, 0.0722106, -0.0303054, -0.0439937, -0.015489, 0.0600305},
	{-0.00895763, -0.035441, -0.0136962, -0.00407803, -0.00328264, 0.0773936, 0.0266043, -0.0260394, -0.000244232, 0.0065129, 0.00802262, -0.0143751, 0.025719, 0.00336717, -0.0646684, 0.0202031, 0.011981, 0.00174794, 0.0202213, 0.0181543, -0.077293, -0.031332, 0.0140681, 0.0289577, -0.0550338},
	{0.0155513, -0.000489949, -0.00214062, 0.00269667, -0.000811843, -0.00765819, 0.0324826, -0.0275126, -0.0413903, -0.0254713, 0.017189, 0.0108245, 0.02158, -0.0316514, -0.000878574, -0.0141421, 0.00474982, -0.0408835, 0.010775, -0.0175279, 0.0547029, -0.0229045, -0.0050553, -0.0296311, 0.036854},
	{0.0194427, -0.00256714, 0.12333, -0.010781, 0.0241881, -0.188863, 0.0125679, 0.0296189, -0.112782, 0.0240587, -0.00460289, 0.0213976, -0.0114202, 0.00471405, 0.0883264, 0.015489, 0.0220883, -0.138888, -0.0289577, -0.00965116, 0.181557, 0.014833, -0.0196818, -0.00808122, 0.0178735},
	{0.0127944, -0.0107115, 0.0351913, 0.0148154, -0.0309863, -0.0649525, -0.0255585, 0.0200761, -0.0195965, -0.0249495, 0.0338508, -0.0128606, 0.00809387, -0.0101015, 0.0493882, -0.015489, -0.0289642, 0.0166811, -0.00404057, 0.0262483, 0.0487534, -0.0202145, 0.0139769, -0.0168359, 0.0464518},
	{-0.00952871, -0.0167944, 0.138316, 0.0222209, 0.0121091, -0.124375, -0.0297921, -0.0026012, -0.063938, 0.0267622, 0.028603, -0.00829375, 0.000684083, 0.00673435, 0.102111, 0.00471405, 0.0187667, -0.125188, -0.00471219, -0.0331179, 0.0995878, -0.0161603, 0.00796897, 0.030978, -0.0272195},
	{-0.0229003, -0.0303759, -0.0314847, 0.0127945, -0.00537792, 0.0377688, 0.0330564, -0.0160391, -0.021953, -0.0174552, 0.00636275, -0.020875, 0.00536897, 0.0316514, -0.0380636, 0.0249171, 0.0303357, 0.00393285, -0.00404062, -0.0181367, -0.0724377, 0.0208769, 0.0250793, 0.00606091, -0.0330432},
	{0.0141318, 0.0277382, 0.0961637, -0.0148154, -0.0242641, -0.115719, 0.0316299, 0.0152509, -0.0544296, -0.00546882, -0.0318995, -0.00209725, -0.0161591, -0.0242437, 0.0772748, -0.0134687, 0.0309435, -0.0925712, 0.0303046, 0.0295652, 0.146816, 0.0255894, -0.0241393, 0.0202031, 0.0206673},
	{-0.0160885, -0.0100058, -0.0360154, -0.0329983, -0.0282877, -0.0309007, 0.0290398, 0.0298891, 0.0289955, -0.0214608, -0.130163, -0.00384925, 0.0296325, -0.00673435, -0.00638882, -0.0161624, -0.0141154, 0.0713885, -0.00067439, 0.000731552, 0.0475603, -0.00338284, -0.0459168, -0.0175093, 0.0525712},
	{-0.00877217, -0.00128887, -0.0134412, -0.0154847, 0.00811165, -0.0610516, -0.00753625, 0.014646, 0.0475823, -0.0296913, -0.0479137, 0.00478118, -0.0141312, 0.0121218, 0.0335784, -0.0202031, 0.0282366, 0.0315659, -0.0215499, -0.00206143, 0.070397, 0.0255921, -0.063304, -0.0249171, 0.0572016},
	{0.0337389, -0.00323411, -0.0876361, -0.0323249, -0.0141505, 0.00980105, -0.0302773, 0.0130379, 0.115693, -0.00528391, -0.115969, 0.00903474, -0.0195272, -0.00336718, -0.019579, -0.0161624, -0.0202001, 0.128711, 0.0168359, 0.023591, -0.0109924, -2.02878e-005, -0.100575, 0.030978, 0.0479016},
	{-0.0114468, 0.00134685, -0.0723701, -0.0235702, 0.00943245, 0.0548372, -0.0202639, 0.0276327, 0.0233254, 0.0228944, -0.0463587, 0.0236618, 0.00203002, 0.0249171, -0.0213504, -0.000673436, -0.00809399, 0.0797215, -0.0168359, 0.0127821, -0.0763435, -0.000668234, 0.018083, 0.0222234, 0.0223859},
	{0.0134942, 0.0295824, -0.0786036, -0.0235702, -0.0302925, 0.105458, -0.00409077, 0.0311087, 0.0439966, 0.0296586, -0.00159542, 0.0331392, 0.0276109, 0.0336718, -0.0307148, 0.0296311, 0.0168346, 0.0764276, 0.0168359, -0.0235607, -0.0754925, 0.0134682, -0.0355188, 0.010775, 0.00155919},
	{-0.00740686, -0.0255649, -0.000521192, 0.00942806, -0.0276111, -0.00243374, 0.0262631, -0.00268199, -0.01006, -0.0195496, -0.0283765, 0.0148044, 0.0127964, -0.0188562, 0.0101769, 0.00538748, -0.00134587, 0.0247867, -0.00740779, -0.0181876, -0.0135858, -0.0289577, -0.0316579, 0.0269374, 0.00719291},
	{-0.00267932, 0.00142745, -0.0507755, -0.0208765, 0.000673484, -0.00377538, -0.00876069, 0.0282439, 0.00020261, -0.0262774, -0.0847017, 0.00139652, 0.0208766, -0.00336718, 0.028948, -0.00538748, -0.00271231, 0.0483194, 1.75158e-006, -0.0296377, 0.0182236, 0.0242433, -0.0539687, -0.0168359, 0.0121701},
	{0.00309129, -0.024912, 0.0162789, 0.00399356, -0.0295396, 0.0840445, 0.00847677, 0.0279606, -0.0108174, -0.0285169, 0.112013, 0.00500902, 0.0270428, 0.0175093, -0.0835326, -0.0114484, 0.0255111, -0.00453298, 0.000690749, -0.0255671, -0.0968655, -0.0131343, 0.0829614, -0.00875466, -0.0524301},
	{0.00274339, 0.0183196, 0.0298265, 0.0242436, 0.00187895, -0.0467907, 0.0325068, 0.00150026, -0.0451159, -0.00931672, 0.0168841, 0.0155126, -0.0221933, -0.0222234, 0.0205498, -0.0255905, -0.0161158, -0.0211145, 0.0316514, -0.00674599, 0.0475553, 0.0047032, -0.0246258, -0.0316514, 0.0222691},
	{0.0261482, -0.018844, 0.144539, -0.0276123, 0.0187993, -0.179967, 0.0200405, -0.00193003, -0.0944505, 0.0206982, -0.0042748, -0.0143437, 0.00877469, -0.015489, 0.100057, 0.0188562, 0.0281887, -0.10592, 0.0242437, -0.0123053, 0.154116, 0.0235858, -0.000436285, 0.0134687, -0.00457569},
	{0.00472017, -0.0187443, -0.0194502, 0.0107755, -0.0222322, -0.0558609, 0.0323575, -0.00953151, 0.0362105, 0.0188477, -0.0364966, -0.0296418, 0.0249227, 0.026264, 0.0682226, -0.00404061, 0.0188452, -0.00536515, 0.0255905, 0.00401476, 0.0921316, 0.00265888, -0.0643803, 0.00336717, 0.0733929},
	{0.026166, -0.0228714, 0.0612353, -0.0262654, -0.00607502, -0.087061, 0.0321928, -0.028781, -0.0714147, -0.0304478, 0.00596737, 0.0240584, 0.0336722, 0.0289577, 0.0619212, -0.0249171, 0.0221486, -0.0569667, 0.00135092, -0.0135931, 0.128502, -0.0107686, -0.0333137, 0.0101015, 0.033464},
	{0.00538774, 0.0127412, -0.0159364, 0.0127948, -0.0276043, 0.0274348, -0.0113962, -0.00794508, 0.0146051, 0.0337239, 0.0102289, 0.0134793, 0.0228953, 0.00471405, -0.00564916, -0.00606092, 0.0256168, -0.02781, -0.026264, -0.0194938, -0.0424066, 0.00943259, 0.00152916, 0.0323249, -0.0180021},
	{0.0168276, -0.00994991, 0.0703297, -0.010775, 0.019507, -0.0810352, -0.0168664, -0.0103216, -0.0298267, -8.38167e-005, -0.0552118, 0.0234981, -0.0168338, 0.0289577, 0.0505507, -0.0181827, 0.00399977, -0.0787839, 0.00875466, 0.0161023, 0.147483, 0.00740037, -0.0388499, 0.00269374, 0.0606132},
	{-0.0181151, 0.000761072, -0.0271192, -0.0215499, -0.0289662, -0.0111803, 0.0323886, -0.0293819, 0.0210504, 0.00545533, -0.02029, 0.0277439, 0.0329984, 0.0242437, -0.000191722, 0.0235702, 0.0289815, 0.0123414, 0.0316514, 0.00408639, -0.00894741, -0.00741629, -0.0301597, -0.0141421, 0.0521787},
	{-0.00473376, -0.00805445, -0.0374541, 0.0121253, 0.00272712, 0.00226689, -0.0297557, -0.00215518, -0.0103739, -0.0169016, -0.0480309, 0.0108145, -0.00672862, -0.0289577, -0.00559046, 0.0289577, 0.0336363, 0.0321522, -0.00875466, 0.00804966, 0.035561, -0.0208704, -0.0531452, -0.0148156, 0.00171804},
	{0.0317028, -0.0268379, -0.105966, -0.0127911, 0.0276038, 0.0143885, -0.0228801, 0.025118, 0.0691067, 0.0115024, -0.100811, -0.00852445, -0.00807143, -0.0222234, 0.0174708, -6.27615e-008, 0.0148242, 0.0832036, 0.0188562, 0.0242631, -0.0615557, 0.0276095, -0.0238524, -0.0161624, 0.0306693},
	{0.0127937, -0.0289659, -0.0819665, -0.0276108, -0.00537812, 0.0495033, -0.00882325, 0.0208785, 0.0229391, 0.0141187, 0.0173665, -0.00125496, -0.0141423, -0.00875466, -0.07357, -0.0329983, -0.0175203, 0.0583241, -0.0255905, -0.00606897, -0.0725116, -0.0303035, 0.0224777, 0.0114484, -0.00642498},
	{0.014161, -0.00276078, -0.116306, 0.026264, 0.00472971, 0.0500317, 0.0114139, 0.00553448, 0.0822985, 0.0336721, -0.0117458, 0.00417817, 0.0282841, 0.0276108, -0.0585748, 0.00606091, 0.0316521, 0.0453099, 0.0276108, 0.0121395, -0.114399, -0.0101014, -0.0130755, 0.00875466, -0.0179329},
	{-0.00672589, -0.0154227, 0.030291, -0.0289577, -0.0235713, -0.00775011, 0.0249178, 0.0201935, 0.0192392, -0.018182, -0.0062744, -0.0323228, -0.0249171, 0.0181827, 0.0251532, 0.00538748, 0.0141351, -0.00425354, -0.0249171, -0.00338175, 0.02007, 0.0208765, -0.0460817, -0.00404061, 0.0204877},
	{0.00809055, -0.00126733, -0.0327169, -0.0276108, 0.0276087, -0.0311362, 0.020216, -0.0209047, 0.0034163, -0.028274, -0.042895, -0.00129448, 0.0188564, 0.0175093, 0.00745938, -0.0269374, 0.0148031, 0.0216332, -0.00673435, -0.00876531, 0.0170739, -0.0323249, -0.0464431, -0.0134687, 0.0496384},
	{-0.0104078, 0.0099719, 0.055038, -0.0303558, 0.0351148, 0.0373785, -0.0338875, -0.0123095, -0.032705, 0.00782342, 0.11048, 0.0204003, 0.019618, -0.0175093, -0.0782904, 0.0148155, -0.0256168, -0.00468477, -0.00604651, -0.0228123, -0.0664736, -0.0198579, 0.109922, -0.0242437, -0.0807986},
	{0.00139123, 0.0149041, 0.0446835, 0.0101001, -0.00753869, -0.0599486, 0.0237748, 0.0069065, -0.0481976, 0.0169661, 0.0119785, 0.00673892, -0.0235469, 2.37896e-009, 0.0568838, -0.0181827, -0.00531654, -0.0407363, 0.0188562, 0.00203185, 0.0498639, 0.02828, 0.00202987, -0.026264, 0.0102791},
	{0.0039002, 0.0254484, 0.0934323, -0.0181855, -0.00678915, -0.127997, -0.000804385, -0.0308036, -0.0968997, 0.0126415, 0.0473535, 0.0152173, 0.0127931, 0.0168359, 0.110721, -0.00808122, -0.0108326, -0.101379, -0.00269299, -0.0209937, 0.113605, 0.016858, 0.0261153, -0.00202031, -0.00631655},
	{-0.0168247, 0.0116049, 0.0110445, -0.00336396, -0.0060734, -0.0862384, 0.0316943, 0.0181055, -0.00884752, -0.0296117, -0.0765269, 0.0283086, -0.00536044, 0.010775, 0.0875785, 0.0148156, 0.00671022, -0.0278798, -0.0215499, -0.0222538, 0.0788443, -0.016852, -0.0287228, -0.0296311, 0.062354},
	{-0.0317423, 0.0114118, 0.0944432, -0.00202925, -0.0114558, -0.0751888, -0.00214437, -0.00311642, -0.0937893, 0.00189154, -0.027683, -0.0156766, 0.00269748, 0.0235702, 0.0745107, 0.000673436, -0.0296901, -0.0683678, -0.0161624, 0.0140389, 0.104725, 0.0309807, 0.0275017, -0.0175093, -0.00155729},
	{0.00472534, 0.0316343, -0.0170508, 0.0181827, 0.0289648, 0.0277855, 0.0276436, 0.0311263, -0.00107632, 0.00074027, -0.0017957, -0.00871286, 0.00807796, 0.00740778, -0.00779984, -0.0134687, -0.0100759, 0.00101853, 0.0222234, -0.0289256, -0.0376341, 0.0235708, 0.0423438, -0.0215499, -0.00341626},
	{0.0114383, -0.0220983, 0.0834935, -0.0161624, -0.0323399, -0.127479, 0.000636475, 0.0220467, -0.0575819, 0.0295937, -0.0470378, 0.00329319, 0.0296334, 0.030978, 0.0965749, -0.00740779, 0.0120878, -0.0649094, -0.00269277, 0.0228389, 0.127088, 0.0316514, -0.0353285, 0.0276108, 0.0193224},
	{0.0270024, -0.00665339, 0.00961998, -0.0215499, -0.0134764, 0.00556868, 0.0202637, -0.0240215, -0.0114007, 0.00209783, -0.0265092, 0.00820555, 0.00136063, -0.0208765, 0.00486516, -0.0242437, -0.0282614, 0.0231761, 0.0181827, -0.0215173, -0.0260635, -0.0134727, -0.000674177, 0.0114484, -0.00661851},
	{-0.00474356, 0.032939, -0.027488, 0.00404406, 0.0256178, -0.00415843, 0.00594249, 0.00998589, 0.0204049, -0.0263296, -0.0277188, 0.0107753, 0.0208762, 0.010775, 0.0051683, -0.00606092, 0.0322953, 0.00897043, 0.0101015, 0.0302807, 0.037297, 0.0141562, -0.036776, -0.0329983, -0.0217881},
	{-0.0289076, -0.0315985, -0.0695229, -0.010773, -0.0255968, 0.0444111, -0.0228655, -0.00250653, 0.0996274, 0.00341678, -0.0475705, -0.0200241, 0.0202051, 0.026264, -0.0385309, 0.0289577, 0.0323336, 0.11585, -0.0269374, 0.00204918, -0.0233278, 0.00604995, -0.042977, 0.00673435, 0.0598495},
	{0.0336652, 0.0336431, -0.101017, -0.0195296, -0.00874514, 0.0897115, -0.0249771, -0.0228837, 0.0572833, 0.0242061, -0.0147671, 0.0337284, 0.01212, -0.0276108, -0.0479501, 0.0134687, 0.0215399, 0.0795409, -0.0276108, -0.028288, -0.0695839, -0.0289569, -0.0014992, 0.0175093, -0.0140411},
	{-0.0168285, -0.0283667, -0.0622876, 0.0235702, -0.0141293, 0.0852863, -0.00270676, 0.021672, 0.0304216, 2.12205e-005, 0.016521, -0.0072926, -0.0282849, 0.0296311, -0.0852237, -0.0296311, 0.0323281, 0.0377491, 0.00404061, -0.00535697, -0.100295, -0.0107735, 0.039354, 0.0202031, -0.0142529},
	{0.00404914, -0.0107064, 0.00824653, -0.0127954, 0.00201868, -0.0422887, 0.0201983, 0.0262394, 0.0137574, 0.00335695, -0.0234527, 0.0181916, -0.0323249, -0.0228968, 0.0416692, -0.0121218, 0.0208678, 0.0183779, 0.00740778, -0.0235768, 0.0109539, 0.00538526, 0.00903517, -0.00740779, 0.0412245},
	{-0.00133513, -0.0046197, -0.031005, 0.0141421, -0.0121277, -0.0488304, -0.0201797, 0.0214936, 0.043889, -0.0107581, -0.0500444, 0.00947846, -0.0316514, -0.0316514, 0.0324397, -0.0188562, 0.0329917, 0.0161295, -0.0026936, -0.0289648, 0.0454031, 0.0249168, -0.00694504, 0.0188562, 0.0410525},
	{0.0212214, -0.00496218, -0.0227051, 0.024189, 0.0122485, 0.0595158, -0.0123244, -0.00208574, 0.018977, -0.0157516, 0.145921, 0.0102035, 0.00546142, -0.0249171, -0.0644633, -0.0208765, -0.0336604, -0.00122418, 0.0181921, -0.0295088, -0.135128, 0.0239177, 0.0662955, 0.0141421, -0.117958},
	{0.000711825, 0.0175615, -0.00983872, 0.000670547, 0.0308609, 0.00353421, -0.019318, -0.032137, 0.00811014, 0.0331313, 0.0594827, -0.000697195, 0.0235886, -0.00269374, 0.0444228, 0.00875466, -0.00395601, -0.00959273, 0.00673278, 0.0148399, 0.00288047, 0.0154827, 0.00368947, -0.00538748, 0.0131252},
	{0.0261182, -0.023141, 0.108519, -0.022227, 0.0329687, -0.104815, 0.0227976, -0.0300469, -0.0413282, -0.00217897, 0.0695658, 0.017165, -0.0215562, 0.0255905, 0.0570235, -0.0127953, -0.00473976, -0.0891719, 0.0269374, 0.016082, 0.127973, 0.0161859, 0.0435048, 0.0249171, 0.00256649},
	{0.0242715, -0.0179616, -0.0237236, 0.0202031, 0.0242323, -0.105158, -0.00937514, -0.00945491, 0.038805, 0.0249595, -0.0363464, -0.000564443, 0.0242558, 0.0020203, 0.044805, 0.00740778, 0.0222025, 0.00725368, 0.026264, -0.0202361, 0.0777476, 0.028941, -0.0363903, 0.0195296, 0.0949267},
	{0.0315667, 0.0248434, 0.0304174, 0.0181826, -0.00135226, -0.108187, -0.0317505, -0.00302238, -0.0762462, 0.00998374, -0.0181964, 0.0153148, 0.00538799, 0.0141421, 0.0463765, 0.00336717, 0.00668127, -0.0274308, 0.0329983, 0.0282083, 0.105965, -0.0262617, 0.0167897, 0.0121218, 0.000744397},
	{0.01752, -0.00880382, 0.0348579, 0.0175093, 0.027618, 0.0466836, 0.00474312, 0.0156492, -0.0290039, 0.0249754, 0.0275602, -0.0228251, -0.00471515, 0.030978, -0.0218716, 0.00471405, 0.0249373, -0.00493754, 0.0329983, -0.0154539, -0.0199096, 0.0242445, 0.0224554, -0.0276108, -0.0263885},
	{0.00740062, -0.0234488, 0.0601589, -0.0249171, 0.00199725, -0.128734, -0.0289887, -0.0163092, -0.0494205, -4.88858e-005, -0.0327329, 0.0201485, -0.0242386, -0.00740779, 0.0643065, -0.0188562, -0.00273416, -0.0165539, 0.0134687, -0.00680598, 0.108041, 0.0107686, -0.0263209, 0.0161624, 0.0694945},
	{0.0142051, -0.00127315, 0.0012252, -0.0276108, -0.0276178, -0.0280332, -0.0134179, 0.0116278, 0.0372084, 0.00950363, 0.00920788, -0.00527652, 0.00674986, -0.0121218, 0.0137753, -0.0235702, 0.0114706, 0.0350722, 0.0141421, 0.0128252, 0.0405831, 0.00403476, -0.00435534, -0.00336718, -0.00275564},
	{0.0194968, -0.0290532, -0.0248598, -0.0242436, -0.0174779, 0.0253465, -0.0149347, 0.0160447, 0.0219728, 0.016083, -0.031714, -0.0316667, 0.0255881, -0.0215499, 0.00433255, 0.00269374, -0.0155219, 0.0460544, 0.030978, -0.0242616, -0.0375745, 0.0141585, -0.00679353, -0.0296311, 0.0305015},
	{-0.0107298, -0.0174587, -0.0858395, 0.0202031, -0.0202086, 0.0071086, 0.0296663, 0.0243602, 0.080926, 0.0148569, -0.0240111, -0.0281475, 0.0148237, 0.0255905, 0.0223568, -0.0202031, 0.0316597, 0.0490015, 0.00202029, 0.0289757, -0.0237155, 0.00537921, 0.00928605, 0.00673435, 0.03331},
	{0.0249055, -0.0269748, -0.0716369, 0.0249171, -0.0201928, 0.0534828, -0.0242974, -0.00944653, 0.0422602, -0.0323668, -0.00513933, 0.0135185, 0.00471191, -0.0121218, -0.0101043, 0.0168359, 0.0309689, 0.0569426, 0.0168359, -0.0222243, -0.069012, -0.0255901, 0.0136488, -0.0181827, 0.0296084},
	{0.00539416, 0.0309091, -0.052892, -0.00740722, 0.0229098, 0.0816306, 0.0309696, -0.0181158, 0.070081, -0.0120996, -0.0197734, -0.0113598, -0.0329983, 0.0276108, -0.0286731, -0.0276108, -0.0296265, 0.0235546, 0.00606091, -0.0208558, -0.0783643, 0.00808353, -0.00908586, -0.0141421, -0.00719418},
	{-0.0242366, -0.0113857, 0.0335878, 0.0222234, 0.0121182, -0.0295212, 0.00606016, 0.0167835, 0.0248937, 0.0302946, -0.0077308, 0.0101144, 0.0101028, -0.0235702, 0.00642247, 0.0276108, -0.0161725, 0.00447136, 0.00942809, 0.0121091, 0.0452573, -0.0121202, -0.0334726, 0.0208765, -0.0127472},
	{-0.0141338, -0.000592034, -0.0281028, 0.0202031, 0.0282773, -0.0253266, 0.0256163, -0.0276676, -0.0012347, -0.0161324, -0.0298033, -0.0208274, -0.0195295, -0.00942809, 0.0056565, 0.00471405, -0.0013594, 0.0197568, -0.0101015, 0.00739761, 0.043705, -0.0276109, -0.00462216, 0.0303046, 0.0489623},
	{-0.0185251, 0.0145483, -0.00574083, 0.0275528, 0.0290982, 0.0767647, -0.0244403, -0.0370618, -0.00947205, -0.00636619, 0.121634, -0.00807683, -0.0275511, -0.0148156, -0.0781679, 0.0249171, -0.02355, 0.011556, 0.01348, -0.0180483, -0.0608187, -0.023229, 0.0609324, -0.00336714, -0.0995801},
	{0.0135013, 0.0195855, 0.0370644, 0.00605787, 0.00188919, -0.0336236, -0.00785709, -0.0226777, 0.0117147, -0.0220915, 0.0538236, 0.0221746, 0.0168525, -0.010775, 0.00103427, 0.00471405, 0.00480529, -0.00434444, -0.0222234, -0.0168106, 0.0197327, -0.00472152, 0.0359387, 0.015489, -0.00752542},
	{0.0314992, -0.015766, 0.11326, -0.0316514, 0.017478, -0.128038, 0.010687, 0.00169378, -0.0626661, 0.00386128, 0.0352341, -0.00379492, 0.00333663, -0.00404061, 0.0622685, 0.0336718, -0.0181854, -0.0918205, -0.010775, -0.0243186, 0.0921721, 0.029654, 0.0396793, 0.00740778, -0.00247656},
	{0.0168877, 0.0245175, -0.0637744, -0.0181827, -0.027625, -0.0613579, -0.0154457, -0.0195211, 0.0556188, 0.0263271, -0.117541, 0.0156845, 0.0188787, 0.0296311, 0.0524268, 0.00336717, -0.0182076, 0.0480122, -0.00808122, -0.0222487, 0.0754434, 0.027588, -0.0918604, 0.0269374, 0.0865571},
	{0.0201191, 0.0335915, 0.0208983, -0.0316514, -0.0316506, -0.0714825, 0.00327366, -0.0137267, -0.0403894, -0.00751689, -0.0130115, -0.0156312, 0.009429, -0.0101015, 0.078888, -0.000673436, 0.00264769, -0.0611262, -0.0282843, -0.0209413, 0.084469, -0.00807687, 0.0117708, 0.0202031, 0.0253302},
	{-0.00335112, 0.00670903, -0.00605882, -0.0282843, 0.0181919, 0.0474638, -0.00264823, 0.0290786, 0.0261724, -0.0140695, 0.0315094, -0.0254892, -0.00942818, -0.00942809, -0.0539828, -0.0222234, -0.0114261, 0.0198459, 0.00606091, 4.03573e-005, -0.0571674, 0.0316514, -0.00823694, -0.0195296, -0.0322521},
	{-0.0289599, 0.0230157, 0.0398429, 0.0168359, 0.0282641, -0.0846938, -0.00743842, 0.0099614, -0.052922, 0.0188129, -0.0518665, -0.00475527, -0.0302998, -0.0175093, 0.0791975, -0.0161624, -0.0256168, -0.0344225, -0.0168359, -7.81994e-005, 0.11464, 0.0276094, -0.0373255, -0.0141421, 0.0541553},
	{-0.0302569, -0.00532858, -0.0278778, 0.0215499, 0.0201938, -0.0349278, 0.0229466, 0.029103, -0.00133439, -0.0248727, 0.0418402, 0.00815556, -0.00133201, -0.0296311, 0.0199401, 0.0134687, 0.0067589, -0.00658395, -0.00673435, -0.0141197, 0.022245, 0.0148125, 0.0227993, -0.00606092, 0.00781302},
	{-0.000718968, -0.00351347, -0.00861674, -0.0161624, -0.026228, 0.0608898, -0.0223354, 0.020793, -0.0146555, 0.0100014, -0.0107303, 0.0154421, 0.0201956, 0.0296311, 0.00174667, -0.0296311, -0.0087812, -0.00142175, -0.0296311, 0.0255774, -0.0398852, -0.00738494, 0.0132397, 0.0101015, -0.0408157},
	{0.0336942, -0.011416, -0.0986288, 0.0316514, -0.00741595, 0.0381809, -0.00737781, -0.00257144, 0.065486, 0.0134947, -0.00935365, 0.00884696, 0.0134753, 8.50611e-010, -0.0290311, 0.0121218, 0.00607746, 0.0562221, 0.00808122, -0.0309597, 0.00568484, 0.024916, -0.0283909, -0.030978, -0.00459088},
	{-0.0330152, 0.012726, -0.0810838, -0.00134564, 0.0316623, 0.052386, -0.0128495, 0.0107533, 0.0461233, -0.0330395, -0.0303624, 0.0161702, 0.0249169, 0.0127953, 0.00752906, 0.0202031, -0.0168443, 0.0324189, 0.00740776, 0.00605977, -0.0623388, 0.0121262, -0.0316483, -0.0101015, 0.011318},
	{0.0134711, 0.00866085, -0.0429197, -0.0255905, -0.00941419, 0.0816974, -0.0255977, 0.0101886, 0.0447076, 0.00742555, -0.00247447, 0.0121776, 0.00335583, 0.0255905, -0.0517487, 0.010775, -0.00470196, 0.0761753, 0.0161624, -0.0228736, -0.0386912, -0.00807708, 0.027353, 0.0134687, 0.0201492},
	{-0.0127879, -0.0268885, 0.0134203, -0.0188562, -0.0202083, 0.00913029, -0.0154947, -0.0195924, -0.0369734, 0.00335655, 0.000902959, 0.0235732, 0.00539199, 0.0336718, -0.00074795, -0.0134687, 0.00065743, -0.00776112, -0.0296311, 0.0107591, 0.00642319, -1.35557e-006, 0.0189871, 0.0289577, 0.0187533},
	{-0.0201927, -0.0214595, -0.0309522, 0.00269634, -0.0215586, -0.0232339, 0.00743408, -0.0296469, 0.0152046, 0.0283308, -0.0346568, 0.018251, 0.00338438, 0.015489, 0.0230894, -0.0222234, 0.00066206, 0.0442068, -0.00269364, 0.00201373, 0.0475054, -0.0188563, -0.0192953, -0.00336718, 0.0343888},
	{0.00973436, 0.0205699, -0.0363439, -0.0209404, -0.0260994, 0.0584088, -0.000894285, -0.00407711, 0.0112233, 0.0305723, 0.127426, -0.0109309, 0.0323714, 0.0289577, -0.0752459, 0.0222234, -0.0148021, 0.00960174, 0.00674818, 0.00551891, -0.0467604, 0.0340047, 0.0678457, 0.00538748, -0.0720109},
	{0.0148479, -0.00465902, 0.0382481, 0.0188534, -0.0290746, -0.0077248, 0.0251436, -0.0307269, -0.00962533, -0.0207584, 0.0058142, 0.0241795, -0.0141242, 0.0195296, 0.036957, -0.0323249, 9.42623e-005, -0.000733101, 0.0242437, -0.0154597, 0.045281, -0.00809061, -2.60255e-005, -0.00740779, 0.0274061},
	{0.0314964, -0.0110897, 0.114307, 0.0127772, 0.0161396, -0.107995, -0.0270148, 0.0314228, -0.0423821, 0.00788017, 0.0589374, 0.023119, -0.0175265, 0.0336718, 0.0611949, -1.12517e-007, -0.00471212, -0.0984897, 0.000672017, 0.0255239, 0.100072, 0.0134942, 0.0123033, 0.026264, -0.0203776},
	{0.0229704, -0.0327289, -0.0468534, -0.0289576, -0.00742846, -0.0403829, -0.0194934, 0.0114927, 0.0482302, 0.0243529, -0.129591, -0.0131941, 0.032999, 0.00471405, 0.0621978, 0.0175093, 0.0316347, 0.0697641, 0.026264, -0.0202072, 0.055501, 0.0275896, -0.0474707, 0.0134687, 0.0570237},
	{-0.00546629, 0.0322436, 0.0172845, 0.00336212, 0.00606776, -0.0482416, 0.0302137, 0.0280903, -0.0228347, -0.00816461, -0.0533612, -0.0115552, 0.0175126, -0.00875466, 0.0328935, 0.00606091, 0.0208499, 0.0053904, -0.0242437, 0.0235247, 0.0648484, -0.0148102, 0.0124214, -0.015489, 0.0211489},
	{-0.00874055, 0.02155, -0.0134119, 2.58676e-006, -0.000662446, 0.0438773, 0.0337141, -0.00932395, 0.038049, -0.00801018, -0.0148948, -0.0120132, -0.0215495, -0.010775, -0.0171502, 0.0181827, -0.0134457, 0.0118356, -0.0033674, -0.00467605, -0.0136972, -0.0329983, -0.0191349, -0.0222234, -0.00914453},
	{0.0336669, 0.00552462, 0.0353047, 0.0215499, -0.0175308, -0.0955496, -0.0121526, -0.000162626, -0.0320783, 0.0336352, -0.0162026, 0.0336199, 0.0094495, -0.00269374, 0.0456123, -0.0323249, -0.0168608, -0.009683, 0.0269374, -0.00950032, 0.0819502, 0.030976, -0.0268676, 0.0141421, 0.0555697},
	{-0.0215165, 0.0290094, 0.0179155, -0.0168359, 0.0161464, -0.0280891, 0.00408564, 0.0128791, 0.0123401, -0.00402902, -0.00517358, 0.00471513, 0.010787, -0.0235702, 0.0260011, 0.00606091, 0.00608019, -0.0218096, -0.0276108, -0.0255915, 0.0328626, -0.0215505, -0.0149192, 0.0276108, 0.0383518},
	{0.0208307, 0.0139673, 0.0313595, -0.0249169, -0.032964, 0.039246, 0.0173867, 0.0234843, 0.0210821, -0.0256914, -0.00869584, 0.0127318, -0.00338919, -0.015489, -0.0327719, 0.0114484, 0.0289367, 0.0249553, -0.0074081, 0.010758, -0.0551893, -0.00132336, 0.00876455, 0.00673435, -0.0242083},
	{0.0148381, 0.00473212, -0.0792787, 0.00538851, 0.0114373, 0.00455277, 0.0141663, -0.00260637, 0.0305463, -0.000673453, 0.00584056, 0.0168669, -0.00403388, -0.0134687, -0.00292654, 0.00942809, -0.022217, 0.0558426, -0.0101015, -0.032322, 0.00450284, 0.00403672, -0.0393775, 0.0168359, 0.0493245},
	{-0.0067581, 0.0221574, -0.0776305, -0.0329983, 0.0175237, 0.0274882, 0.01813, -0.033019, 0.0248968, 0.0100655, -0.0209479, 0.0309875, -0.0161622, -0.0134687, -0.0168212, 0.026264, 0.0302947, 0.0417137, -0.0289577, 0.0175094, -0.0207717, 0.0276109, 0.0150512, -0.0202031, 0.0322844},
	{0.0309796, 0.00596677, -0.0809207, -0.00269157, 0.0168474, 0.0339998, 0.00470275, -0.0194291, 0.0289842, 0.0114565, -0.0292451, 0.00542844, 0.00268083, 0.0148156, -0.0185167, 0.0269374, -0.0161533, 0.0311413, -0.0141421, -0.00669255, -0.0589366, 0.0303047, 0.0227304, -0.000673436, 0.00695831},
	{-0.0215437, 0.0290255, -0.00192724, -0.0208765, -0.00067994, -0.0112689, 0.0276014, 0.0221637, -0.0111733, -0.00673125, -0.0564747, 0.0296463, -0.0148122, 0.0134687, 0.0368544, -0.010775, -0.0121337, 0.0184825, -0.00942809, -0.0155045, 0.0147692, 0.0208765, -0.0317523, 0.00808122, -0.0146767},
	{-0.0282686, -0.0194314, -0.0263105, 0.0114484, -0.0188625, -0.0160392, 0.0222432, -0.0289487, 0.0507598, 0.0141886, -0.0720529, 0.0310677, -0.00402628, 0.00942809, 0.0420984, 0.0289577, -0.00943317, 0.00349293, -0.0249171, 0.0215507, 0.0558163, -0.0188565, -0.0302011, -0.0181827, 0.0206544},
	{-0.0145233, -0.0171371, -0.0533579, 0.0336012, 0.00490848, 0.0483772, 0.0260296, -0.0102198, 0.0382115, 0.0197306, 0.125732, -0.00496268, 0.0256301, 0.0188562, -0.0646904, -0.0316514, 0.00471447, 0.00607576, 0.00270915, -0.000547831, -0.0516217, 0.01783, 0.0968812, -0.00740779, -0.0923993},
	{0.0310135, -0.0322428, -0.010224, 0.00605664, -0.0176238, -0.0221509, -0.0051485, -0.0152641, -0.0235025, -0.0268099, -0.0142742, -0.00949508, -0.00401977, -0.0121218, 0.0545739, -0.0316514, -0.0329239, 0.00441077, 0.0175093, -0.0269146, 0.0396366, 0.0302941, -0.0197156, -0.00875466, 0.0296861},
	{-0.0230622, 0.00170698, 0.0930018, 0.0222183, -0.010786, -0.0691312, 0.00395999, 0.00713391, -0.0712633, -0.0177139, 0.0681366, 0.00626862, 0.0255733, -0.00404061, 0.0690017, 0.0235702, 0.0269379, -0.0606832, 0.026264, 0.0329404, 0.123214, 0.0202216, 0.00622543, -0.0242437, -0.0330534},
	{-0.00123877, -0.00171639, -0.0364253, 0.0222241, -0.00338876, -0.0440017, -0.000631447, -0.00866586, 0.0450413, 0.000148264, -0.0881087, -0.0171894, -0.0161409, 0.00134687, 0.0702927, -0.00673435, -0.00204406, 0.0570813, 0.0175093, -0.0168155, 0.0686752, 0.0242218, -0.0950302, 0.0215499, 0.0940163},
	{0.000600447, -0.000741249, 0.0236137, 0.0303046, -0.0222097, -0.0468057, -0.0155803, -0.00757474, -0.033836, 0.0154152, -0.00907157, 0.00869379, -0.0188513, 0.0121218, 0.00942388, 0.010775, -0.0134954, -0.00511947, 0.0222234, 0.0269064, 0.063536, -0.020203, -0.0125128, -0.00606092, 0.00950984},
	{-0.0114308, 0.0242786, -0.0644502, -0.030978, 0.00808397, 0.050778, -0.00533701, 0.000778142, 0.0277546, 0.0155392, -0.0277086, 0.0142575, -0.0242432, 0.010775, -0.0266807, -0.0195296, -0.0262479, 0.0251597, 0.0141421, -0.0188356, 0.0102916, -0.0303049, -0.0402299, 0.0336718, -0.0123495},
	{0.013462, 0.00213067, 0.0196754, 0.0148156, -0.00338924, -0.0748632, 0.02219, 0.00792846, 0.012546, 0.00127801, -0.019373, 0.0228462, -0.0262525, 0.00606091, 0.0629946, 0.030978, -0.0289836, -0.0480223, 0.00202109, 0.0235109, 0.0359049, -0.0249199, -0.0388555, -0.00538748, 0.042842},
	{0.0276361, -0.0161211, -0.0143982, 0.0121219, 0.022204, -0.00528791, 0.0256363, 0.0296701, 0.00318742, 0.0201741, 0.00666424, 0.0167978, 0.0235768, -0.0134687, 0.00721169, 0.00740778, -0.0296211, -0.0265848, 0.0289577, -0.0168526, 0.028176, -0.0222236, -0.00299604, -0.0323249, 0.0175668},
	{-0.0269913, -0.0176913, 0.00822649, -0.0329983, -0.0161187, 0.0442838, -0.00618554, -0.000769328, 0.00639037, -0.0283769, 0.0320925, 0.0282211, 0.00738102, 0.0222234, -0.044181, -0.0202031, 0.0141213, 0.0228711, -0.0161624, -0.0202153, -0.0690396, -0.0323211, 0.00956462, -0.0168359, -0.0651015},
	{-0.0161507, -0.0323299, -0.00930685, 0.0134687, 0.0262538, -0.00619989, 0.00945962, -0.0167818, 0.0235319, 0.0141409, -0.0258012, 0.0323173, -0.0168353, -0.0255905, 0.03558, 0.010775, -0.0060538, 0.0563431, 0.00404061, -0.0141384, 0.0293944, -0.0114503, -0.0383891, 0.00740778, 0.0213012},
	{0.0114227, -0.00816075, -0.0505562, -0.000673707, -0.0302881, 0.0362921, 0.010723, -0.0188745, 0.0234847, 0.0174812, -0.0131697, -0.0235632, -0.00136177, 0.00875466, -0.0157267, 0.0181827, 0.00335407, 0.0433264, -0.0188562, 0.0235738, -0.0120392, 0.0114507, -0.0245425, 0.00471405, 0.0263527},
	{-0.0134708, -0.00819834, -0.0467991, 0.0269374, -0.00402745, 0.00460299, -0.0323324, 0.0236698, 0.00579689, 0.0255877, -0.000469916, 0.00203134, 0.022221, -0.0141421, -0.0101573, 0.015489, 0.0296423, 0.0351288, 0.0202031, 0.0229274, -0.0121002, -0.0175091, 0.0397755, 0.0316514, 0.0196952},
	{-0.0323211, 0.00274975, -0.0182416, -0.030978, 0.0154856, -0.0206307, -0.0114588, 0.00266126, -0.0153735, -0.0107653, -0.020518, 0.0108095, -0.0114468, 0.0208765, 0.0105869, 0.0114484, 0.0276029, 0.0109703, -0.015489, -0.0141556, 0.020298, -0.00336995, -0.0383403, 1.80376e-008, -0.00631714},
	{-0.0309567, -0.0261725, -0.0350304, -0.0148155, -0.0262678, -0.0433828, 0.0222496, 0.0296896, 0.0555766, 0.00949988, -0.0539462, 0.0109045, 0.0336718, 0.00134687, -0.000883485, 0.0215499, 0.00606048, 0.000756427, 0.00606091, -0.00739258, 0.0534721, 0.0100949, -0.0296886, 0.015489, 0.015368},
	{-0.0199311, 0.00106877, -0.0256322, 0.0073323, 0.0352251, 0.0114776, -0.0144058, -0.0103333, 0.00807438, -0.00126121, 0.128099, -0.027249, -0.0262309, 0.0296311, -0.0447201, 0.0215499, -2.76368e-005, 0.0402304, 0.0330109, 0.0142473, -0.0242363, 0.0306127, 0.0762639, -0.00942809, -0.0857791},
	{0.00407237, 0.00412568, 0.00224002, 0.000665793, 0.0261489, -0.0485501, -0.0260308, -0.0213106, -0.0247854, -0.000556908, -0.0145808, 0.0308962, -0.0201832, -0.000673436, 0.0572773, 0.0148156, 0.00143432, 0.0180504, -0.0175093, -0.0080599, 0.0469622, -0.0330031, -0.0264465, -0.0101015, 0.0181815},
	{0.0186923, -0.0251799, 0.0772409, -0.0303132, 0.0316565, -0.0493734, -0.00817174, 0.00108735, -0.0643711, -0.011656, 0.108038, -0.00784079, -0.00273168, -0.0141421, 0.0656803, -0.015489, 0.0195232, -0.0692851, -0.0141421, -0.0296846, 0.0593231, 0.00540697, 0.0229964, -0.0323249, -0.0250126},
	{-0.0147044, 0.0292044, -0.0560177, 0.0309801, -0.00474107, -0.0205704, 6.57218e-005, 0.0183927, 0.0552312, -0.00453487, -0.137108, -0.030625, -0.0228725, -0.00134687, 0.0585872, 0.010775, -7.40155e-006, 0.0477675, 0.0134687, -0.0120744, 0.0615892, 0.00265983, -0.0617778, 0.0020203, 0.099935},
	{0.00465647, 0.0214908, 0.0331655, 0.0249171, -0.0134468, -0.029573, 0.0194385, 0.00663037, 0.000239134, 0.0268964, 0.00203072, -0.00742747, 0.00336401, 0.015489, -0.0178662, 0.00471405, 0.0147915, -0.000732031, -0.030978, -0.0256024, 0.0383672, -0.0202026, -0.0302711, -0.0296311, 0.031315},
	{0.026281, 0.00813407, -0.0385251, -0.00942769, 0.0289535, -0.0236978, 0.0182293, 0.0122115, 0.00507852, 0.012166, -0.000650666, 0.00344927, 0.0121342, -0.0249171, -0.022246, -0.0134687, 0.0296423, 0.0546095, 0.00336718, -0.0249141, 0.00226887, 0.0269365, -0.0382383, -0.00134687, 0.0582644},
	{0.0269332, 0.0169393, 0.0219553, -0.0249171, 0.0255761, -0.0657056, -0.0310164, 0.0281406, 0.00710294, -0.0135466, -0.0572394, 0.00803729, 0.00205077, 0.0316514, 0.0527401, 0.0228968, 0.0323009, -0.0198643, -0.0114484, -0.0316974, 0.0702056, 0.0181799, -0.0443175, 0.0215499, 0.0669903},
	{-0.0174931, -0.0113775, 0.0173718, -0.0316514, 0.0134426, -0.030885, 0.026983, -0.00809683, 0.0300401, -0.00950016, 0.00527468, 0.00328424, 0.00204275, 0.0336718, 0.0372707, -0.0114484, -0.00269121, 0.0183141, 0.0148156, -5.64156e-005, 0.078881, -0.0303056, 0.00384226, -0.0296311, -0.00144192},
	{0.000605177, -0.014313, -0.0134896, -0.0181828, 0.0128534, 0.0692715, 0.0167157, 0.023457, -0.00113078, 0.0234738, 0.0421169, -0.0229569, 0.0269214, 0.0215499, -0.0256395, 0.00673435, 0.000651379, -0.000709219, 0.0074076, -0.0148193, -0.0628506, -0.0188446, 0.0404615, -0.0208765, -0.0450028},
	{0.000679018, 0.00941923, -0.0144894, -0.00202129, 0.00605399, 0.0075416, 0.0148538, -0.00264392, -0.0091967, -0.00203799, -0.0496886, 0.00334513, 0.00269218, 0.00740778, 0.05474, -0.0202031, -0.00941993, 0.00284689, -0.0242437, -0.00942234, 0.0552771, -0.0208769, -0.0125818, 0.0141421, 0.017375},
	{-0.0161886, -0.00211217, -0.0384014, -0.0249171, 0.0222471, 0.0217829, -0.029691, -0.0155277, -0.0117966, 0.0161386, -0.0163916, 0.020871, 0.0296288, 0.0276108, 0.00294318, -0.0235702, -0.0175179, 0.0309123, -0.0329983, 1.66802e-005, -0.0665575, 0.0242437, 0.0164024, -0.0316514, 0.00702855},
	{0.0168344, 0.00191212, -0.0286394, -0.00942809, -0.00739717, 0.0794352, -0.00808411, 0.0155891, 0.0432553, -0.0329931, 0.0394391, -0.0202039, 0.0215482, 0.0141421, -0.0199344, -0.00269374, 0.0235841, -0.00342716, 0.0242437, 0.0202365, -0.0444385, 0.0222235, 0.0526044, -0.0202031, -0.0367728},
	{0.0296409, 0.0242941, -0.0298139, -0.0276108, 0.0262598, 0.0497018, -0.0161826, 0.0315933, 0.0179509, -0.0121127, -0.0330763, -0.0316132, 0.0141449, -0.00808122, 0.0178973, 0.0188562, 0.0329924, 0.00370078, 0.026264, 0.00941381, -0.0197588, -0.0296312, -0.00692483, 0.0121218, 0.00883222},
	{0.00407627, 0.0216284, -0.0103734, -0.0208765, 0.0154825, -0.00065094, 0.01418, -0.00730466, 0.0201578, -0.00261201, -0.0883033, -0.00388595, 0.0107849, -0.0208765, 0.0124153, -0.00808122, 0.0336753, 0.0757047, 0.0289577, 0.00339085, 0.0194814, -0.0121303, -0.0311526, -0.0134687, 0.0248105},
	{0.00295975, -0.0244927, -0.0475282, 0.0288783, -0.0239751, 0.0193389, -0.0157843, -0.0191835, 0.0304871, -0.00331231, 0.105592, -0.0171212, -0.00132773, 0.0195296, 0.0150947, -0.00740817, 0.0161078, 0.0534362, -0.0161459, -0.0072971, -0.0272077, -0.0057626, 0.0352676, 0.0114484, -0.006595},
	{-0.000633863, -0.0012325, 0.0138459, -0.0282877, 0.00122213, -0.061582, 0.00562153, 0.0190735, -0.0353374, -0.0308608, 0.0267435, -0.00612308, -0.0174864, 0.0168359, 0.0298258, 0.0134687, -0.0288831, 0.0192707, 0.0336718, -0.000649172, 0.0273387, 0.0161491, 0.00649173, -0.0222234, 0.0219075},
	{0.0160129, -0.0123569, 0.0263849, 0.0228887, 0.0283101, -0.0424127, -0.0263746, 0.025299, -0.03734, 0.0125993, 0.126976, 0.0198484, -0.0175355, -0.0269374, 0.0155151, -0.00538748, 0.0242272, -0.0219538, -0.0175093, 0.0154583, 0.00693566, -0.00941542, 0.0475324, -0.0215499, -0.0817423},
	{-0.0039248, 0.012308, -0.0597485, 0.0276144, 0.0282524, -0.00341255, -0.00729849, -0.0300417, 0.0755109, -0.024723, -0.104088, 0.0299735, -0.0269119, -0.0195296, 0.0607734, 0.00875466, -0.0141238, 0.027043, 0.00673415, -0.00464675, 0.0226076, 0.0269189, -0.0400279, -0.00471405, 0.0518452},
	{0.0248714, -0.00209252, 0.00514548, 0.0249171, 0.0148439, -0.00437761, 0.0113665, 0.0167377, 0.000149571, 0.026238, 0.00282001, -0.0148208, 0.00336198, -0.0303046, 0.0167354, -0.00202031, 0.00536552, 0.0320186, -0.0235702, 0.00067698, -0.0118385, 0.0161627, -0.0042654, -0.0249171, -0.0145504},
	{0.0229112, -0.00663178, 0.0045603, 0.0269374, 0.022883, -0.0720035, 0.0256389, 0.0310312, 0.0142641, -0.0249036, -0.0440778, -0.00940571, -0.000647273, 0.0202031, -0.00211839, -0.0127953, 0.00337367, -0.0190102, -0.00606091, -0.00406989, 0.0280618, -0.0249177, -0.00786507, -0.0175093, 0.0513132},
	{0.0228873, 0.0243442, 0.0428485, -0.0195296, 0.0053715, -0.102511, -0.00679202, -0.0291492, 0.011129, -0.0169123, -0.0392455, -0.0081258, -0.00940394, 0.0336718, 0.0311273, 0.0276108, 0.0120843, -0.0418431, -0.0188562, 0.0174413, 0.0529525, 0.0289542, -0.0179722, -0.00134687, 0.0414015},
	{0.0235745, -0.0120286, 0.00632021, 0.0222234, -0.0296563, -0.0623606, 0.0269594, -0.0175907, 0.0102486, -0.00480826, 0.0066946, 0.0315536, 0.020883, 0.0134687, 0.0656319, -0.0228968, 0.00133758, -0.0190578, 0.00404065, 0.0167693, 0.0907719, 0.00335438, -0.0282117, 0.0222234, 0.0234514},
	{0.0134005, -0.00827226, -0.0307851, 0.0181827, -0.0302376, 0.0621038, 0.00794723, 0.0322154, 0.0281399, -0.0162485, 0.0908352, 0.00869646, -0.0135013, 0.00740778, -0.0653083, 0.0161624, 0.0201806, -0.023089, 0.00875466, -0.0168286, -0.037237, 0.0222338, 0.0561282, -0.0228968, -0.0481935},
	{-0.00202187, -0.011455, -0.000268194, 0.0235702, 0.00807869, -0.0276405, 0.0249439, 0.0114562, 0.0425622, 0.0013266, -0.0696848, -0.0107967, 0.0303072, 0.0181827, 0.0739903, -0.0303046, -0.0107691, 0.028874, 0.0235702, -0.0215445, 0.0575554, -0.0222243, -0.0478219, 0.0114484, 0.0610019},
	{0.0161375, -0.000766023, -0.05342, 0.0316514, -0.0053532, 0.0626534, 0.0113885, 0.0269017, -0.0019017, 0.00402351, -0.00248905, 0.00135099, 0.0215479, 0.0148156, -0.0364811, -0.0141421, 0.0161547, 0.0250966, -0.0269374, -0.0127723, -0.0453483, 0.0282848, -0.00574424, 0.00269374, 0.000280909},
	{0.012118, 0.00323131, -0.0127594, 0.0276108, 0.0323383, 0.0793612, 0.0161707, 0.0270684, 0.0249808, -0.0087191, 0.0317509, 0.0262878, -0.00675886, 0.0242437, -0.0588837, 0.0121218, -0.0195114, 0.0319766, -0.00134917, 0.0215959, -0.0587085, -0.0289577, 0.0543868, 0.0235702, -0.0671472},
	{0.00741792, 0.00880486, -0.0102449, 0.0289577, -0.00404577, 0.0152039, -0.0175357, -0.0256333, -0.00795773, 0.0289676, -0.00900579, 0.0141757, -0.0202029, -4.79509e-010, -0.0346764, 0.0181827, -0.00270492, 0.0200905, 0.00471405, -0.0309919, 0.000429835, 0.0329983, -0.0303094, 0.0195296, -0.00448189},
	{-0.0174808, -0.0295519, -0.0562162, 0.0296311, -0.0215567, -0.0438585, -0.0147712, -0.023469, 0.0548523, -0.0221416, -0.101747, -0.00659629, -0.00334322, -0.00875466, 0.00253132, 0.0168359, -0.0107679, 0.0226638, -0.0323249, 0.0229149, 0.0388077, -0.0141487, -0.0519994, -0.00808122, 0.0358677},
	{0.0170932, 0.0111975, -0.0681489, 0.00934428, 0.00907621, 0.0239761, 0.00841782, 0.0170441, 0.0337898, 0.00810652, 0.132985, -0.0164395, 0.00538285, 0.0148156, -0.0353548, -0.0296311, -0.0337548, 0.0390423, 0.0141628, 0.00349806, -0.0522675, 0.0339679, 0.0381084, 0.0175093, -0.0594041},
	{-0.00668937, 0.0304588, 0.0414552, 0.0100966, 0.016054, -0.0422238, 0.00629132, 0.0210498, 0.0173601, 0.0101997, -0.019871, -0.0242947, 0.00204687, 0.0141421, 0.0479179, 0.0114484, -0.0302368, -0.0262754, -1.74392e-007, 0.018879, 0.0370132, -0.00810159, 0.00328052, -0.0114484, 0.0100548},
	{-0.0297588, -0.0156537, 0.0306344, 0.0114307, -0.0235286, -0.0353854, 0.0274877, -0.00235847, -0.00638848, -0.00962201, 0.0963002, -0.00904882, -0.00205208, -0.00740779, 0.0232132, -0.030978, -0.0236009, 0.0157264, -0.00538726, -0.016181, 0.0541063, -0.0168338, 0.0228071, 0.00942809, -0.0274633},
	{0.0182899, 0.0324895, -0.075642, -0.00132358, -0.0155337, -0.0204563, -0.00321848, 0.0292826, 0.065051, 0.0136674, -0.091821, -0.00639186, 0.0316558, 0.0215499, 0.036449, 0.0127953, -0.0242122, 0.0666062, -0.0127953, -0.0288936, -0.00348786, 0.027594, -0.052538, 0.0235702, 0.059199},
	{0.00669895, -0.0310127, -0.0538432, 0.0282843, 0.0296577, 0.0251972, 0.0228228, 0.000633248, 0.0279204, -0.00945052, -0.0402457, 0.0121515, 0.0134723, 0.010775, -0.0315702, 0.0161624, 0.0282654, 0.00649304, 3.25648e-007, -0.0228865, -0.0133672, -0.00404157, 0.0117367, 0.0323249, -0.0115401},
	{0.0282975, 0.016976, 0.00189895, -0.0161624, -0.0283072, -0.0397701, -0.0188193, -0.0147704, 0.0225059, -0.0087584, -0.0293389, -0.0188452, 0.0181862, 0.0336718, 0.0153225, -0.00538748, -0.025592, -0.00969307, -0.0269374, -0.00947015, 0.0723449, -0.0127976, -0.0565598, -0.00875466, 0.0665599},
	{-0.0114549, 0.0263937, 0.00603298, -0.0296311, 0.0141258, -0.0867787, 0.012735, 0.028094, -0.0156396, 0.024149, -0.05088, -0.0195657, -0.0168254, 0.0323249, 0.063737, -0.030978, 0.0302673, 0.00210623, 0.010775, 0.00327326, 0.0507443, -0.0316515, -0.0553019, -0.0134687, 0.0671205},
	{-0.0154907, 0.0095424, 0.0146318, -0.000678076, 0.0201781, -0.0749144, 0.0336714, -0.0311117, -0.0173822, 0.0207737, -0.0372365, 0.0275061, 0.0329983, 0.00606091, 0.0457129, 0.00269374, 0.00132476, -0.00902325, -0.00336577, -9.64101e-005, 0.10379, 0.00402993, 0.00202804, 0.0269374, 0.0277613},
	{0.00195515, -0.013646, -0.0330828, 0.00740334, -0.00193439, 0.0331615, -0.00351494, -0.0182419, 0.0102318, 0.0160933, 0.0408201, -0.0107907, 0.00468555, 0.00134687, -0.0121609, -0.0101015, -0.0121493, 0.00961932, 0.0202031, -0.0316421, -0.0361695, 0.0208819, 0.0342559, 0.026264, -0.0390907},
	{0.0242435, -0.0316251, -0.0338038, -0.0148156, 0.0168364, -0.0417427, 0.0336908, -0.00474293, 0.0165883, 0.0296224, -0.0320265, -0.0141433, 0.0154929, 0.0235702, 0.0250576, 0.0329983, -0.0175071, -0.0181637, 0.0255905, 0.0262711, 0.0856347, 0.00200443, -0.00559125, 0.000673436, 0.0464824},
	{0.00401338, 0.0295613, -0.041981, -0.0289577, -0.0120878, 0.0539952, 0.010712, -0.0188846, 0.00656025, 0.0100826, -0.0226643, -0.0242278, 0.0269352, -0.026264, 0.00869126, 0.00942809, -0.0195375, 0.0526212, -0.0188562, 0.0101307, -0.0590822, 0.00337305, -0.0247926, -0.0222234, 0.0089335},
	{0.0249105, -0.0163298, -0.0479873, -0.0208765, -0.0316331, 0.0791815, 0.00673648, 0.0264035, 0.0352007, -0.00535708, 0.0681815, -0.0329842, 0.0114214, -0.0181827, -0.0651468, 0.0020203, 0.000707999, -0.000606455, -0.015489, 0.0249806, -0.138125, -0.0080758, 0.00348108, -0.0323249, -0.0449011},
	{0.0121296, -0.0316294, 0.00451037, 0.0215499, -0.00404717, -0.0135953, -0.0276392, 0.0269215, 0.00628436, 0.0235835, -0.0254775, -0.0289342, 0.0249166, 0.0255905, 0.000685078, 0.0276108, 0.0154815, -0.0210802, 0.0161624, 0.00267688, 0.00662935, 0.00875653, 0.0293667, -0.0242437, 0.000770243},
	{-0.022866, -0.03022, -0.0130243, -0.0107744, 0.0100906, -0.0674894, -0.00803901, 0.00283052, 0.054684, -0.0106782, -0.0587617, -0.0187354, -0.00334283, 0.0141421, 0.0288123, 0.026264, -0.0134593, 0.065956, -0.00606092, -0.0174908, 0.0107545, -0.00405538, -0.0236293, -0.0121218, 0.0157977},
	{-0.0024457, -0.0279012, 0.00180574, -0.0256787, 0.0320005, 0.0184393, -0.00308414, -0.0289405, 0.0310173, -0.0255462, 0.0846443, -0.0117073, -0.000696295, 0.0020203, -0.0321582, -0.00538783, -0.0283987, 0.0172268, 0.0208964, 0.0129397, -0.0370604, 0.00905331, 0.067577, -0.0255905, -0.0589823},
	{-0.0255427, 0.00958138, 5.6426e-005, -0.0289601, -0.00280457, -0.0407117, 0.000888549, 0.0297806, -0.00131563, -0.00460273, -0.00219831, -0.0108148, -0.00872823, -0.0316514, 0.0042979, 0.00673435, 0.00276526, -0.0356133, -0.0289577, -0.00400993, 0.0254473, 0.00132646, 0.0111177, 0.030978, -0.00999099},
	{-0.00550855, 0.00657436, -0.00961582, -0.0229001, -0.00329761, -0.0149899, 0.00591236, 0.0232589, -0.0157504, 0.0227415, 0.0182514, -0.00830553, -0.00945808, -0.0127953, 0.0367806, -0.0228968, 0.0208381, -0.0157121, -0.0161624, 0.00201697, 0.004585, -0.00202141, -0.0189673, -0.0303046, -0.00866402},
	{-0.0160572, -0.00323591, -0.0715517, 0.0303092, -0.0135129, 0.0129537, -0.0267789, -0.0218299, 0.0444004, 0.00828703, -0.0849458, -0.0124743, -0.00197759, -0.0114484, 0.0108198, 0.0161624, -0.00667881, 0.0751761, -0.00942809, 0.0256614, -0.0111873, 0.0269234, -0.0505868, 0.00740778, 0.0184429},
	{0.032305, 0.0268986, -0.050135, -0.00336387, -0.0188205, -0.0248668, -0.0229749, -0.0242431, 0.0363196, 0.033644, -0.0486536, -0.0228358, 0.0101052, 0.00606091, -0.0274703, 0.0228968, -0.00204278, 0.048382, -0.00808122, -0.0121037, 0.00160863, 0.00134224, -0.0266858, 0.0276108, 0.0326838},
	{0.0309905, -0.0193682, 0.00641954, 0.00741013, 0.0120904, -0.0462815, -0.0100828, -0.0108027, 0.0390236, -0.0323552, -0.0340896, 0.0255871, 0.0202072, -0.0329983, 0.0303596, -0.0269374, 0.0154775, 0.0196815, 0.00202101, 0.0140882, 0.0577263, 0.010101, -0.0470525, 0.000673436, 0.0250124},
	{0.0282801, 0.0196701, 0.0211234, 0.00808123, -0.018875, -0.113, 0.0329337, 0.0226795, -0.0241449, 0.0308752, -0.0618795, 0.0154354, 0.012824, -0.030978, 0.0799527, -0.00269374, -5.54469e-005, -0.0182419, -0.00201773, -0.00481922, 0.0932147, 0.00403153, -0.021193, 0.0127953, 0.0598615},
	{-0.0323303, 0.0129304, 0.061122, -0.0289577, 0.0255582, -0.10662, -0.0269528, 0.00985988, -0.0505004, 0.00121442, -0.00789624, -0.0162984, -0.0168332, -0.00202031, 0.0403624, -0.00740779, -0.0121526, -0.0628564, -0.0215499, -0.0169327, 0.125592, -0.0228969, -0.00999871, 0.0020203, -0.00305412},
	{0.0140811, 0.0119682, -0.0584828, 0.0168359, 0.0256666, 0.0184107, -0.00284386, -0.0222839, 0.0249117, 0.033599, 0.0121259, 0.0242466, -0.0229126, -0.0188562, -0.0502771, -0.00538748, -0.0303366, 0.0516626, -0.010775, 0.00203292, -0.0563823, -0.0134616, -0.0166078, 0.00673435, 0.0235514},
	{0.0107679, -0.00267504, 0.00546807, -0.0154891, 0.0282881, -0.00325042, -0.0242164, 0.0147639, 0.026103, 0.00876195, 0.00725772, 0.0235627, -0.0289576, -0.0208765, 0.00928777, -0.0202031, 0.0114511, -0.0169155, 0.0282843, 0.00675195, 0.052263, -0.0309786, 0.00930683, 0.0329983, 0.0267782},
	{-0.00271908, -0.0310545, -0.0504287, -0.0195296, -0.0161241, 0.0227317, -0.0189094, -0.0107805, 0.0175123, 0.0255701, 0.0200906, -0.0147857, -0.00069547, -0.0168359, 0.00645857, -0.0208765, -0.0330033, 0.0281905, -0.0121218, 0.0249551, -2.11127e-005, -0.0276106, -0.00252316, 0.0323249, 0.0334857},
	{-0.0188626, -0.0203872, -0.061833, 0.0148156, -0.0181567, 0.109435, 0.0282894, 0.00217333, 0.0168524, -0.0174826, 0.0638461, 0.00473796, 0.0208711, 0.00808122, -0.0622104, -0.0175093, -0.032979, 0.00815076, -0.00942809, 0.00278487, -0.134801, 0.0222237, 0.0556709, 0.00538748, -0.0188843},
	{0.0289644, 0.0336765, 0.0164972, 0.00808123, -0.0047209, -0.00643107, 0.00738519, -0.0329907, -0.0106361, 0.0208943, -0.0175521, -0.00268252, -0.013468, 0.0127953, -0.0102329, 0.00875466, -0.010106, -0.0165433, 0.0141421, 0.0222132, -0.0400094, 0.00741381, 0.0110788, -0.00538748, 0.0318765},
	{-0.00872119, 0.0108578, -0.0490473, -0.0134681, -0.0148247, -0.024913, -0.0140963, -0.0200608, 0.0562616, -0.0261691, -0.0550377, -0.0214397, 0.0323249, -0.0161624, -0.00620954, -0.026264, 0.00944094, 0.032107, 0.0276108, 0.0134932, 0.0314364, 0.0336718, -0.0433866, 0.00404061, 0.0580028},
	{-0.00984762, 0.00238889, -0.00628206, -0.0256765, -0.0211415, 0.0332956, 0.02519, -0.0188665, 0.0030419, 0.017577, 0.13258, 0.0085502, -0.0108217, 0.0181827, -0.0318033, -0.0208765, 0.0220878, -0.00370988, -0.000650458, -0.00183339, -0.0257097, -0.0111482, 0.0791793, -0.00808122, -0.0538695},
	{0.031705, 0.00691207, -0.00303111, 0.0336718, 0.00258948, -0.0672265, -0.00516829, -0.030133, -0.0210467, -0.0227779, 0.00558579, 0.00066254, -0.0114227, 0.0228968, -8.06102e-005, 0.0316514, -0.00666878, 0.0155648, -0.00740788, -0.0053541, 0.00909251, -0.0289743, -0.0272541, 0.0141421, 0.0114216},
	{-0.0297229, -0.016971, 0.0146089, 0.0255892, 0.0236573, -0.0466838, -0.00687255, 0.0327375, 0.0179748, -0.0075476, -0.0181392, -0.0317967, -0.00542481, 0.0242437, 0.0208746, -0.0255905, 0.0114009, -0.00269354, 0.0228968, -0.0127793, 0.0474214, 0.0222229, 0.0170299, -0.0121218, 0.00246193},
	{0.0277165, -0.0247811, -0.0712614, -0.0316514, -0.000724205, 0.0195847, -0.0153234, 0.0327449, 0.0712846, -0.0226985, -0.0282027, -0.0279813, -0.00804111, -0.0208765, -0.0374778, -0.0168359, 0.0142057, 0.0811378, -0.00269589, -0.0140666, -0.0412961, 0.022886, -0.0495738, -0.00808122, 0.0362979},
	{-1.62669e-005, -0.0175529, -0.0399414, -0.0296311, -0.00128905, -0.0167499, 0.0248422, 0.0235959, 0.0223002, -0.0101198, -0.0858309, 0.0142317, -0.00673824, 0.00538748, 0.00798784, 0.00471405, 0.0242272, 0.0821551, -0.0181827, -0.0107483, -0.013424, 0.0228943, -0.0482942, 0.0336718, 0.0458837},
	{0.0276233, -0.00926605, -0.0235845, 0.0202031, 0.0161305, -0.10706, 0.0242415, -0.0027818, -0.0236484, -0.00879851, -0.0502344, -0.00675474, 0.0336721, -0.0323249, 0.042235, 0.030978, -0.02022, 0.0262609, -0.0148156, 0.00397465, 0.103794, -0.0107754, -0.0456613, -0.0329983, 0.0276121},
	{0.0262591, 0.0331059, 0.0250017, 0.0134687, -0.0303206, -0.0541405, -0.00411106, 0.00519633, 0.00155922, -0.0203123, -0.0233457, -2.85867e-005, 0.0276188, -0.00202031, 0.0937091, 0.0121218, -0.0020745, -0.0328207, 0.0208765, 0.0201213, 0.106689, -0.0282852, -0.0496618, -0.00740779, 0.0237667},
	{0.0336657, 0.0142977, 0.0387048, -0.026264, 0.00399532, -0.114168, 0.0107456, -0.0211455, -0.0598254, -0.00821119, 0.0044895, -0.0270682, -0.0309742, -0.00336718, 0.0767953, -0.00538748, -0.0323535, -0.0444329, -0.0148156, -0.00550342, 0.0838168, 0.0316514, -0.0242361, 0.0228968, 0.051781},
	{-0.006121, -0.0122821, -0.0145689, 0.0033663, -0.00933946, -0.00490062, -0.00284046, -0.0270043, -1.0061e-005, -0.011517, -0.0248428, -0.0127867, -0.0208954, -0.0114484, -0.0431068, 0.0276108, 0.00804431, 0.0171945, -0.00942809, -0.021534, -0.0277516, -0.0188539, -0.021732, -0.0296311, -0.00861989},
	{-0.0188582, -0.00199932, 0.0230742, 0.026264, 0.0303099, -0.0388079, -0.0147913, -0.00946254, 0.01469, 0.0175207, -0.032834, 0.000668876, -0.0047172, 0.00336717, -0.0115242, 0.0276108, -0.0168328, 0.0187985, 0.010775, 0.00339426, 0.0290827, -0.0181828, -0.00618354, 0.0121218, -0.0203653},
	{-0.0262836, 0.0153948, -0.0378135, 0.0168359, 0.0189003, 0.0778649, 0.0140891, -0.00536735, 0.0392641, -0.00540825, -0.0324692, 0.0128357, 0.0107579, -0.0188562, -0.0230167, -0.0148156, -0.0235734, 0.0544246, -0.00808122, -0.0113995, -0.0455876, 0.00875717, 0.0162059, -0.00942809, 0.0348961},
	{-0.00943521, -0.012962, -0.0429991, -0.0195296, -0.0141102, 0.116132, -0.0168211, -0.00996515, 0.00974586, -0.0309494, 0.0272639, -0.0181602, 0.0222191, 0.00740778, -0.0518128, -0.0127953, 0.0101322, 0.00931539, -0.0181827, 0.0249832, -0.123954, -0.00739981, 0.0168481, 0.010775, -0.0525386},
	{0.00875897, 0.00942381, 0.0178165, -0.0202031, 0.00133891, -0.00771537, -0.0229146, 0.0181838, 0.0133756, -0.018856, 0.03238, 0.0255933, -0.0121194, -0.00673435, -0.00109162, 0.0020203, -0.012798, 0.0142176, 0.0215499, -0.00473604, -0.0186692, -0.0329983, -0.0349005, -0.0101015, -0.0281761},
	{0.020909, 0.0276699, -0.0367562, 0.0336718, 0.0127891, 0.00472244, -0.0100553, 0.00417463, 0.0169912, -0.0032778, -0.0752386, -0.0329192, -0.020202, -0.0208765, 0.0188963, -0.00134687, 0.0208896, 0.0510071, -0.000673807, 0.0235883, 0.00596354, -0.011451, -0.0351439, 0.026264, 0.0468485},
	{0.0305831, -0.0144289, 0.00148815, -0.0182614, -0.000223052, 0.0278066, -0.0192525, -0.00463963, 0.00989757, -0.00459743, 0.0831882, -0.000746431, -0.0135277, 0.0316514, -0.0336866, -0.0121219, -0.0311249, 0.00757519, 0.0222423, -0.00716872, -0.0124634, 0.0144345, 0.0529538, -0.00404061, -0.0119289},
	{0.0162246, -0.0220465, 0.0151767, 0.0249162, 0.0113533, -0.0425112, -0.0038296, 0.0156605, -0.0302398, 0.03312, -0.00375303, -0.00807064, 0.00810589, -0.0269374, 0.000646826, 0.0249171, -0.0147552, -0.00828723, 0.00269412, -0.0174801, 0.0225391, 0.028267, 0.0212787, 0.0336718, 0.0368182},
	{-0.0175901, -0.0263934, 0.00429715, 0.019529, 0.0297366, -0.00992398, 0.00255383, -0.0103416, 0.0161373, -0.00146087, -0.0457335, -0.0182677, -0.00273307, 0.0168359, 0.0411569, -0.0181827, 0.0188091, -0.0066039, 0.0228968, 0.0114716, 0.0107145, 0.0303037, -0.0158374, -0.0168359, 0.0194433},
	{0.0270418, 0.0331431, -0.0368775, 0.0114606, 0.00735669, 0.0664276, 0.0163058, 0.0111823, 0.0300905, -0.0287827, -0.0630579, 0.0319038, -0.0208471, 0.00875466, -0.0285066, -0.015489, -0.0228413, 0.0866977, -0.0175093, 0.0135246, -0.0591596, -0.0208856, -0.0181747, 0.015489, 0.0399036},
	{0.00806537, -0.0229467, -0.0753531, -0.0134679, 0.0303606, -0.00395877, 0.0308985, -0.012781, 0.0481483, -0.0330243, -0.0910483, 0.0303967, 0.00807855, -0.030978, 0.0264002, 0.00673435, -0.000698723, 0.0217057, -0.0242437, 0.013492, -0.00630376, 0.00403318, -0.0262837, 0.00134687, 0.0119007},
	{0.018862, 0.0183027, 0.0160837, -0.0181827, -0.0316819, -0.0969432, 0.0316481, -0.00012909, -0.0260047, -0.0249684, -0.0867102, -0.0236093, 0.0148318, -0.0276108, 0.0540035, 0.0215499, 0.00468886, 0.0222888, 3.17937e-006, -0.00275825, 0.13457, 0.0114487, -0.0461226, -0.000673436, 0.0825182},
	{-0.0121267, -0.0301523, 0.0422134, 0.0303046, 0.000644791, -0.095955, 0.00128641, 0.0213357, 0.0267665, -0.00278369, -0.0331907, -0.00270999, 0.0235806, -0.010775, 0.0391765, 0.0336718, 0.0120689, 0.0231844, -0.0269374, -0.00548924, 0.0894789, 0.0336718, -0.00259705, 0.0168359, 0.0750311},
	{0.00672752, 0.00893701, 0.0529893, -0.0134693, 0.0066822, -0.133679, 0.012108, 0.011161, -0.0244261, -0.0149248, 0.00529145, -0.000115016, 0.0316515, -0.00471405, 0.0724564, 0.0316514, -0.0215902, -0.0641671, 0.0127953, -0.000787591, 0.149906, -0.0107791, -0.00205595, 0.026264, 0.0581045},
	{0.0127414, 0.0126437, -0.0548975, -0.0303046, -0.00326655, -0.00187293, 0.00727249, -0.0256439, 0.0129259, 0.0012812, -0.0435917, -0.00468431, -0.0128238, -0.0161624, -0.0286072, 0.00134687, -0.0195631, 0.0672335, -0.0148156, 0.0208946, -0.0439994, 0.0222247, -0.0196472, -0.0235702, -0.0193156},
	{-0.0303004, 0.0289827, -0.0229152, -0.00740809, -0.029621, -0.00696511, 0.011478, 0.0148208, 0.0210266, 0.0101209, -0.0137058, -0.0154742, 0.0249152, -0.00942809, -0.00339169, 0.00134687, -0.0168324, 0.0194421, 0.0289577, 0.00676214, 0.020691, 0.0316514, -0.0210569, -0.0282843, 0.0381129},
	{-0.0148384, -0.019647, -0.0657505, -0.0148155, -0.00802577, 0.0183082, 0.0228458, -0.0309528, 0.0168055, 0.0228844, -0.00794822, -0.00938732, -0.0188649, 0.0188562, -0.0134389, 0.0208765, -0.0101027, 0.00218767, -0.0134687, 0.00274924, -0.0599985, -0.0276109, -0.0132519, -0.000673436, -0.0100709},
	{-0.00539135, 0.0139842, -0.0631047, 0.00942809, -0.0208368, 0.0597985, 0.0235842, -0.026788, 0.0444418, -0.00534634, 0.0639373, -0.0275761, 0.00737689, -0.000673436, -0.0343417, 0.0195296, -0.0323054, 0.0483897, -0.0296311, -0.0322773, -0.0574886, 0.0154906, -0.0007947, -0.0121218, -0.00518051},
	{0.014142, -0.0161622, 0.0163114, -0.0316514, -0.0148233, -0.00145, 0.0262476, 0.0020184, 0.0366605, 0.0269382, 0.0340382, 0.0329882, 0.00135216, -0.0208765, 0.0168314, 0.00538748, -0.020205, 0.018051, -0.0228968, 0.0127759, 0.0206173, -0.0262639, 0.00676149, -0.0161624, 0.0322883},
	{-0.00669977, 0.0229576, -0.0360625, 0.00673764, -0.0208816, 0.000710928, 0.0121633, -0.0308436, 0.0287803, -0.00733565, -0.046498, 0.0296949, 0.0222241, 0.0181827, 0.011967, -0.00740779, 0.00540302, 0.034823, 0.00336718, 0.0195439, 0.0190432, 0.0127933, -0.037536, 0.0161624, 0.0539007},
	{0.00366611, 0.00242007, -0.0109952, -0.00276337, -0.0298259, 0.0405444, -0.0266185, -0.000497841, -0.0171809, -0.0193323, 0.0119657, -0.0127548, 0.0187938, -0.0188562, -0.0265432, 0.00875464, 0.0241008, -0.0257831, -0.00738685, -0.0131888, -0.0348458, 0.0279002, 0.0614486, 0.0134687, -0.0383632},
	{0.00276442, -0.0240299, 0.0220195, 0.0242431, 0.0228042, -0.0375104, 0.0298413, 0.0338389, -0.00194485, -0.0288336, -0.0168418, -0.00940691, -0.02018, 0.0148156, 0.034275, 0.0336718, -0.0275561, -0.0125112, -0.0235702, -0.0235439, 0.0172691, -0.0283009, -0.0325778, -0.0148156, 0.0478916},
	{-0.0195943, 0.0335825, 0.0193603, 0.0148141, 0.0250276, -0.00768411, 0.00188871, -0.021764, -0.00782476, 0.026176, -0.0152844, 0.026908, 0.0262313, -0.0235702, 0.0479076, 0.0127953, -0.00208023, 0.0188213, -0.00808122, -0.0026675, 0.0507097, 0.0323249, -0.0399241, -0.00134687, 0.0158605},
	{-0.00796596, -0.00384811, -0.0931034, 0.0141537, -6.76155e-005, 0.0351108, -0.00659821, 0.0023925, 0.0326923, -0.0193828, -0.0542757, 0.0184292, 0.0283158, -0.0161624, -0.0330434, 0.0336718, -0.0221754, 0.0717176, 0.00471382, 0.0188887, -0.0311238, -0.00877213, -0.0515609, 0.0316514, -0.00588339},
	{-0.0114576, 0.00603967, -0.0391704, -0.00336011, -0.0302457, -0.00587697, -0.0149024, 1.71852e-005, 0.0332348, 0.012775, -0.0484805, -0.0322195, 0.0080799, 0.00404061, 0.00701981, -0.0148156, -0.0242649, 0.0648673, 0.0208765, -0.0208544, -0.019414, 0.026935, -0.0615745, -0.00538748, 0.0240801},
	{0.0316493, -0.01203, 0.0126154, -0.0121217, -0.00946082, -0.0795164, 0.0222213, 0.0221015, -0.00763319, -0.00342304, -0.0618329, 0.00533113, -0.0323247, 0.0127953, 0.0558036, 0.0161624, 0.0302898, -0.028161, -0.015489, 0.02286, 0.0796612, 0.0222235, -0.0632092, -0.00875466, 0.0291801},
	{0.00202112, -0.0247831, -0.00357275, -0.00269244, 0.0316362, -0.117706, 0.0161041, 0.0058507, -0.0338891, 0.0188004, -0.044124, -0.0255975, 0.0215553, 0.000673436, 0.081109, 0.0208765, 0.00263584, -0.0202997, 0.00673439, -0.0222911, 0.126107, -0.0208769, -0.0558592, 0.0188562, 0.0693391},
	{0.0107682, 0.00217584, 0.0345816, 0.0148153, 0.0181423, -0.0856422, 0.0168331, -0.00497044, -0.045846, -0.0270177, 0.00139091, 0.00864798, -0.000650573, -0.00471405, 0.084709, 0.0289577, -0.00879757, -0.0622474, -0.0215499, -0.0135552, 0.107576, 0.0215497, -0.0293022, -0.0289577, 0.0408022},
	{0.000621094, -0.00151605, -0.0393322, -0.00673322, -0.0295312, 0.0457779, 0.0126598, -0.0236006, 0.00189479, -0.0222814, 0.0082652, 0.0121645, -0.00272424, 0.0121218, -0.0241132, 0.00942809, -0.0330266, 0.0537327, -0.0033677, 0.0336949, -0.0417716, 0.0208792, -0.0313491, -0.0168359, 0.00890874},
	{0.024925, 0.0168471, 0.0137632, 0.0242437, -0.0228848, -0.0179235, 0.0175419, -0.0127809, 0.0194362, -0.0255666, -0.0182743, 0.0141577, 0.00875307, 0.0282843, -0.00299489, 0.00808122, -0.0249147, 0.0284733, 0.0181827, -0.0329882, 0.0301618, 0.0148124, 0.0180753, -0.000673436, -0.00354138},
	{0.0329826, 0.000534479, -0.0273917, -0.0141421, -0.0026254, 0.0258675, -0.00746178, 0.00744063, 0.0419546, 0.0188554, 0.026912, 0.0310192, -0.0303105, -0.0242437, -0.0337676, -0.0161624, -0.0303065, 0.0590967, -0.0188562, -0.000620003, -0.0200864, 0.0235702, -0.0252067, 0.0282843, -0.000716109},
	{-0.0114474, -0.0203303, -0.043223, 0.0114484, -0.0114062, 0.074893, -0.0100851, -0.0119595, 0.0145822, 0.0303496, -0.00251219, -0.0255474, -0.0235743, -0.00471405, -0.0377292, -0.0101015, -0.00131521, 0.0146121, -0.030978, -0.00531222, -0.0995795, -0.0255906, 0.0499826, -0.00808122, -0.0551241},
	{-0.0229009, 0.00939486, -0.0263222, -0.0215499, 0.0336659, 0.00756041, -0.00405642, -0.00742133, 0.0206324, 0.00337742, 0.0447033, -0.0249368, -0.0249168, -0.0181827, -0.0105313, 0.0168359, 0.0282828, -0.028033, -0.0208765, 0.00132897, 0.0127817, -0.0175093, 0.010913, -0.0255905, -0.0225484},
	{0.0269645, -0.0322716, -0.0414081, 0.0255905, -0.0141504, -0.0131607, -0.0188144, 0.0256931, 0.0269957, -0.014762, 0.00357507, 0.0189111, -0.0235699, -0.00202031, 0.0184167, 0.0222234, -0.012109, 0.00848815, -0.0202031, 0.0134815, 0.000460012, 0.00875354, -0.0423117, 0.00740778, 0.0165475},
	{-0.0313352, 0.00437378, -0.00121243, 0.0208131, -0.00286962, 0.0111557, -0.0110906, -0.0124851, -0.0363262, -0.00172953, 3.57874e-005, -0.00730277, 0.0262006, -0.0161624, 0.0156387, -0.0303046, 0.00122528, 0.00977786, -0.0127776, -0.0259515, -0.0270211, 0.00634966, 0.0546622, 0.00134677, -0.0261578},
	{-0.0127213, -0.0179973, 0.0176539, -0.0282846, 0.0315748, -0.0491817, -0.0294148, 0.000190975, -0.0422473, -0.0261255, -0.0406075, -0.00938986, 0.0262815, 0.0242437, 0.0044469, -0.0242437, -0.0174496, 0.00412194, 0.00942806, 0.0188899, 0.0164895, -0.0181967, -0.0373056, -0.0134687, 0.0229267},
	{-0.0148591, -0.0162548, -0.055476, -0.000670194, 0.0176311, -0.0425819, 0.00527295, -0.0244129, 0.0510728, -0.0222829, -0.0238804, -0.0295976, 0.00130879, -0.0282843, 0.00111831, -0.030978, -0.00140131, 0.0237313, 0.00404062, 0.0236084, 0.0234064, 0.0303043, -0.0311187, 0.0276108, 0.03072},
	{-0.00122358, -0.0294444, -0.08544, 0.0195318, 0.00599027, 0.0627204, -0.00190468, 0.033975, 0.0329547, 0.029088, -0.0451155, -0.0273965, 0.00207215, -0.00538748, -0.000907339, 0.0181827, -0.0167969, 0.0548228, -0.0276108, -0.00200411, -0.0431664, -0.0114617, -0.00499054, -0.0148156, 0.00180277},
	{-0.00538541, 0.0201637, -0.0726451, -0.0329983, -0.00801473, -0.0145052, 0.000576203, 0.00337821, 0.0483244, 0.0322933, -0.0708676, 0.0203223, -0.00202616, -0.00673435, -0.012776, 0.0215499, 0.0329793, 0.085545, -0.0188562, 0.0323383, 0.01667, -0.0242442, -0.0616843, -0.0134687, 0.0667835},
	{0.00133102, -0.0221678, 0.058995, -0.00741033, 0.0262359, -0.0411776, 0.0148046, -0.0189723, 0.00306198, 0.0228427, -0.0386286, 0.0335957, 0.00472006, -0.0269374, 0.0688042, 0.0127953, 0.00671839, 0.0122576, 0.0235702, -0.0141744, 0.108029, -0.0114452, -0.0171922, 0.00606091, 0.0419972},
	{0.00943045, -0.024116, -0.0127004, 0.0249171, 0.00738408, -0.0681728, -5.97913e-005, -0.0183795, 0.0136046, 0.0228388, -0.0473954, 0.0114505, -0.0289521, -0.00202031, 0.0838786, -0.0276108, -0.00207643, 0.0186253, -0.0195296, 0.0113761, 0.0992005, 0.0195289, -0.054969, -0.00740779, 0.0777893},
	{0.00672186, 0.0122651, 0.0762311, -0.0127954, -0.0188978, -0.0840126, 0.0276185, 0.0293916, -0.0410099, -0.0270028, -0.0808478, -0.00616347, -0.0175058, -0.0181827, 0.0862703, 0.000673436, -0.0161937, -0.0318145, 0.0222234, 0.0133921, 0.120884, -0.0323249, -0.0265566, -0.0296311, 0.0265799},
	{0.025547, 0.0092741, -0.026297, 0.0114498, 0.0196301, 0.0154506, -0.0270744, 0.0248561, 0.00983794, -0.0195946, -0.0364897, -0.0289047, -0.00474262, 0.00808122, 0.0132353, -0.00740779, -0.021586, 0.073241, -0.0269374, 0.0336943, 0.0138752, 0.0309797, -0.0209954, 0.0020203, 0.0279522},
	{-0.00604421, -0.0309269, 0.0120876, 0.00404152, 0.00203383, -0.0194046, -0.0026637, 0.00875387, 0.0327917, 0.000697973, -0.00917105, 0.0108055, -0.0296315, -0.0148156, 0.015904, -0.0148156, -0.0309767, 0.0156216, 0.010775, 0.0175223, 0.027084, 0.0215495, -0.0515706, -0.0228968, 0.0333715},
	{0.0073913, -0.0223293, -0.0201922, 0.0188562, -0.0107145, 0.0165564, 0.0235082, -0.0309417, 0.0290052, 0.0181754, -0.00352223, -0.0275666, -0.00944405, -0.0316514, -0.0284773, -0.00538748, 0.0249144, 0.0629837, -0.0195296, -0.0235289, -0.0341174, 0.00538829, -0.0379878, -0.0303046, 0.0449507},
	{0.0282892, -0.029065, -0.0509482, -0.0222234, 0.0229305, 0.0484782, -0.0255805, 0.0183526, -0.00456667, 0.0108288, -0.00992331, 0.0330446, -0.0208819, -0.0202031, -0.0156683, -0.0168359, 0.012144, 0.0286518, -0.0101015, 0.0310342, -0.0442826, 0.0175091, 0.0417762, 0.0255905, -0.00282963},
	{0.00874609, -0.00676419, -0.0372868, 0.00740755, 0.0222143, 0.0245102, 0.030966, -0.0181807, -0.00531989, -0.000670355, 0.00966979, -0.0202268, -0.00740404, 0.0114484, 0.0228888, 0.000673436, 0.00740504, 0.000216735, 0.0296311, -0.000689531, -0.0288872, -0.0208765, 0.014075, -0.0249171, 0.00725439},
	{-0.0201759, -0.0147474, -0.000896691, -0.0235702, -0.00472823, -0.00330782, 4.19587e-005, -0.0140488, 0.0255113, 0.0188864, -0.033294, -0.0161131, -0.028957, 0.010775, 0.0282587, 0.00269374, -0.0296226, 0.000955409, 0.00269373, 0.0107801, 0.00347906, -0.0148163, 0.00800085, -0.0121218, 0.031758},
	{0.0212031, -0.00505637, 0.00102921, 0.0214928, 0.011942, 0.00285761, -0.00428446, -0.0204205, -0.0253475, 0.00575679, 0.0470863, -0.0146585, 0.0322631, 0.0329983, 0.0159294, -0.0148156, -0.0176023, -0.00953719, 0.0134844, 0.020547, -0.00934833, -0.00106091, -0.0065394, 0.010775, 0.00903159},
	{-0.0174314, 0.00422383, 0.0435147, -0.0282844, -0.0270213, -0.0368532, 0.0285064, -0.0253778, -0.016231, -0.00322529, 0.00806948, 0.0269891, -0.029612, 0.00471405, -0.000974333, -0.0215499, 0.00478243, -0.0145757, 0.00740709, 0.0209116, 0.032617, 0.0262511, 0.00385847, 0.0121218, 0.0281534},
	{0.0161378, -0.00414396, -0.0317436, -0.0114458, 0.0183078, -0.0179467, 0.0329051, -0.00951996, 0.00299897, 0.00532986, -0.0275526, 0.0115263, 0.00804308, 0.0282843, 0.00590499, -0.0134687, 0.0242066, 0.0282293, 0.0282843, 0.029681, 0.059004, 0.0262636, -0.00595099, 0.00538748, 0.047031},
